196 64
JustinTrudeau -0.1935975 -0.037215315 -0.13650247 -0.13591093 -0.07644229 0.003616137 -0.06821113 -0.122949965 0.0038890883 0.08575149 -0.056664824 0.08551868 0.15715963 0.010813225 -0.093280874 -0.22202729 0.092013754 0.18741791 0.10070691 -0.011347753 -0.15592977 0.0028812848 0.21569978 -0.09521843 -0.08168264 -0.27796426 0.05606618 0.011643763 0.44044492 0.032544702 -0.26404822 0.30011183 0.12140679 -0.2120547 0.23041227 -0.129656 -0.33027053 0.18459144 0.20943205 0.16821839 0.0053468426 -0.15747862 -0.026995378 -0.1564283 0.08864611 0.15976892 0.17812255 -0.21463022 -0.101871975 0.14936775 0.317182 -0.13979293 -0.0853921 0.09225905 0.008483895 -0.043179628 0.06751768 -0.117641665 0.015991922 -0.14199091 -0.24459459 0.04661053 -0.09851817 -0.23620969
cathmckenna -0.29958987 -0.073781416 -0.03974944 -0.24500808 -0.08767434 0.1594345 -0.28630793 0.0729789 -0.14987525 0.002916346 -0.07596301 0.16595201 0.0031001258 -0.16004595 -0.42250505 -0.10602796 0.04030587 0.38506323 -0.014940228 -0.18050101 -0.2573285 -0.11335796 0.027740927 0.0073881866 0.10266078 -0.25686234 -0.2463416 -0.18703085 0.3749722 0.0057659275 -0.028151274 0.19549951 -0.079142086 -0.10936923 0.32585794 -0.30050036 -0.15609019 -0.28495616 0.13211109 0.15199818 -0.05205085 0.08061652 0.064420536 -0.124778755 -0.011580907 -0.26230678 0.23835722 -0.34430394 -0.4876531 0.21509573 0.12804021 -0.034574136 -0.039405823 -0.1088281 -0.262663 0.48164004 0.06650793 0.09967544 0.33588392 -0.22146775 0.11727712 -0.15711991 0.1771305 -0.2198417
L_MacAulay -0.15428877 -0.1548655 0.14058347 -0.27348197 -0.132579 -0.005627972 -0.12097195 -0.006433176 -0.10583033 -0.22797808 -0.28217077 0.08641244 0.30345145 0.16180016 -0.3762999 -0.26815954 0.37788013 0.20321156 0.12423499 -0.1499217 0.32791173 0.0025908735 0.16613404 0.061897703 0.039657496 -0.024334986 0.27470058 -0.003041951 0.23466195 0.20733945 -0.057638567 0.2866896 0.08740586 -0.16938378 -0.03172191 -0.16564266 -0.3636264 0.18713659 0.0034647093 0.1962997 0.1868104 -0.12222914 0.07181324 0.08680782 -0.22278997 0.17857951 0.2798397 -0.21491967 -0.036172032 -0.0014619251 0.24904944 -0.27304244 -0.24756448 -0.015658684 0.011197553 0.04865696 -0.07421488 -0.22706155 0.19416408 -0.30943528 -0.18554951 0.14913397 0.09010353 0.028809253
cafreeland -0.24097635 -0.1872277 -0.35798347 -0.19688977 -0.1470936 0.14177157 -0.055184584 -0.15726121 0.3530865 -0.15401733 -0.23671244 -0.121726505 0.15050717 0.02268574 -0.032328874 -0.320181 -0.0100909425 -0.24813657 0.38063893 -0.31081152 0.019529989 -0.059168506 0.21700633 0.16679491 -0.16054064 -0.028387379 -0.115436316 0.24352972 0.2350126 0.087649696 -0.36928064 0.4823616 -0.017690632 -0.19092295 -0.035057317 -0.16518365 -0.23729983 -0.12827171 0.18969679 -0.05201633 0.059490938 -0.34364593 0.06609526 -0.054951303 0.18940647 -0.02635798 0.08975574 0.09572755 -0.033838242 0.14282684 0.16678914 -0.23414496 -0.41899166 0.121613674 0.14681421 -0.43543532 0.13540673 0.18312043 -0.07738166 -0.06257981 -0.052375287 -0.1243787 0.15199988 0.11805519
RalphGoodale -0.21856035 -0.29537085 -0.07760282 -0.15293114 0.0134397475 0.050742045 -0.06495039 0.092241935 0.16510616 0.22797784 -0.25717655 -0.059087425 0.04906649 0.07388505 -0.17296359 -0.21453887 0.24164246 0.09209639 0.16766474 -0.14326313 -0.19506678 0.016068738 0.20569557 -0.14799163 0.13153994 -0.086046085 0.047898658 0.006010197 0.40296096 -0.037245866 -0.24850412 0.1425307 0.18230405 -0.16361795 -0.015467464 -0.07485042 -0.1586605 -0.18320864 0.07897249 0.23666215 0.31788284 -0.26661336 0.14391586 -0.18344581 -0.12133839 0.06625429 0.23270261 -0.10087337 -0.08679692 0.17400542 0.2983787 -0.12194228 0.06703319 -0.09421353 -0.19738004 -0.06714361 0.17632346 0.04691288 0.007695717 -0.13653795 -0.28621423 -0.028115645 -0.04771075 -0.0065410454
NavdeepSBains -0.09282332 -0.029591627 0.046878785 -0.07636707 0.051455818 0.23315912 -0.0682041 0.01548474 0.07298555 0.1022448 -0.2901599 0.0178344 0.09151177 -0.10057751 -0.15281783 -0.19711877 0.18500884 0.07798237 0.07476505 -0.26432407 -0.18490449 -0.069375455 0.36141282 -0.0674876 -0.07580617 0.13388059 0.18103494 0.017153144 0.2812645 -0.08073385 -0.22565539 0.25337422 0.12031452 -0.18873824 0.05503096 0.12433127 -0.19703436 -0.034193154 0.01206982 0.010078566 0.121740945 0.044999927 0.008546131 -0.10476972 -0.026433006 -0.03791193 0.15625617 -0.13800333 -0.30574912 0.2098528 -0.035250656 -0.08974789 -0.30898586 -0.09752333 0.02429705 0.22884774 0.11341352 0.032641254 0.20957892 0.035839327 -0.015029515 -0.37459105 0.13969353 0.0606103
Bill_Morneau -0.2633495 -0.20205693 -0.1796417 -0.2639706 -0.042787015 0.2107937 0.06371129 -0.24149173 0.06518973 -0.037963297 -0.36153173 -0.021323215 0.12949215 0.034521654 -0.19069178 -0.06900059 0.10115969 0.0060930797 0.2248304 -0.43572992 -0.0057443413 -0.14430031 0.32455948 0.20363171 0.10645837 0.08809999 0.096600786 -0.042526614 0.39933714 0.14265352 -0.1646386 0.28947327 -0.02718633 -0.17304267 0.12595332 -0.07997457 -0.17556164 -0.13223979 -0.021084214 0.106992505 0.0871512 -0.05524209 0.1667782 -0.05653092 -0.06847545 0.11296947 0.15904108 -0.061705057 -0.20529409 -0.014252115 0.13950026 -0.0477479 -0.090313636 0.10913037 0.10285859 -0.041429076 -0.03396268 -0.24414667 0.036230557 0.07187287 -0.038860843 0.00850622 0.018194407 0.1489191
MinJusticeEn 0.38191372 -0.2158972 0.28959867 -0.4114882 -1.2433562 0.6131583 0.9235936 -0.97173977 0.6387932 -1.1084352 -1.0116059 -0.23619294 1.906568 0.25894147 0.4853247 0.56486523 -1.5570986 -0.34126952 0.03258971 -0.17294051 -2.0509079 0.9938655 -0.49843308 0.5838814 1.3076328 -0.38136822 1.3399326 0.11762458 2.982743 -1.247613 -1.1111759 0.59450734 1.2626524 0.36182514 -0.28158256 0.56329334 -0.2512178 0.8586293 -0.18779433 0.72301173 -0.98500806 0.31296927 -0.34744117 -0.31205416 -0.4241482 -1.4456943 1.5576644 -0.59318036 0.5214141 -0.014562956 0.23198092 1.0208868 -0.45046178 -1.7349802 0.2971803 -0.05065328 -0.42063326 1.7769417 -1.4443268 -0.44055948 0.38629094 -1.1593108 -0.45067218 -1.9749932
BillBlair -0.13815561 -0.010079586 -0.038766798 -0.11099561 -0.037640963 -0.09036705 -0.28063303 0.027265381 0.066104814 0.1386914 -0.08564628 -0.10104698 0.34031084 -0.166806 -0.09326932 -0.31470492 0.1356094 0.090601 -0.09877581 -0.11810015 -0.23228897 -0.18565026 0.23813412 -0.29461193 -0.15768087 -0.020696886 0.16278313 0.32652128 0.35057834 -0.14726473 -0.299465 0.09974031 0.0907405 -0.09156126 0.12762903 -0.15993018 -0.41763765 -0.01582811 0.12742217 0.12451765 0.07771232 -0.24151637 0.023884404 -0.043042105 0.07123874 0.19699912 0.18047632 -0.07639556 -0.3458038 0.16902925 0.14535354 0.056786012 -0.32554632 0.03369609 0.019349538 -0.060791805 0.16465706 -0.16232903 -0.017238382 -0.065249756 -0.1843555 -0.09022128 -0.044036627 -0.24977167
HarjitSajjan -0.098117456 0.007838581 -0.09570963 -0.25451496 -0.12907577 0.28817415 -0.013544521 -0.074490555 -0.09710783 0.16409849 -0.110454835 0.10241305 -0.041980352 0.07041869 -0.18563189 -0.10070972 0.22450918 0.056661498 0.17073901 -0.0567971 -0.1432859 -0.06589217 0.115415774 0.018647434 0.120172806 -0.16342176 0.060314126 0.14230403 0.21244152 0.0148731 -0.25952256 0.1401943 0.019899933 0.06815439 0.16386493 -0.22337678 -0.003988531 -0.07237502 0.19830778 0.22858125 0.20325558 -0.395353 0.22691217 0.016867239 0.067469105 -0.0002214775 0.15500852 -0.20788601 -0.14533369 0.08123048 0.3095723 -0.108166106 -0.21613467 -0.19708896 -0.051011633 0.07491455 0.24810754 -0.15262128 0.029376209 -0.09983736 -0.15934259 -0.07861667 0.15160806 -0.07834955
HonAhmedHussen -0.2692544 -0.19041373 0.060161788 -0.30524853 -0.04578481 0.3827684 -0.24272475 0.08054793 0.050145466 -0.10296745 -0.31548062 0.06710243 -0.013265636 0.044267293 -0.46653154 -0.20971507 0.057659212 0.05935805 0.22976586 -0.053696055 -0.16913708 -0.077727504 0.1480463 -0.040476 -0.04660834 -0.055362444 0.07847862 0.0006306355 0.29971308 -0.006869662 -0.25129756 0.22711319 -0.15667713 -0.106021926 0.056698628 -0.094977856 -0.21635981 0.02544484 0.1646748 -0.023650398 -0.11621508 -0.13308707 0.03979789 0.13104175 0.0990766 -0.06636274 0.13367623 -0.18493575 -0.28663206 0.1499709 0.111212306 -0.09561231 -0.08849782 0.03225852 0.012762127 0.23570503 0.27723166 -0.113114454 -0.02990149 0.26990667 -0.007873553 -0.15669054 0.033755224 -0.09604495
jimcarr_wpg -0.23442946 -0.0009819266 0.2089056 -0.19063774 -0.12236912 0.17809242 0.08124961 -0.0656616 0.4277093 -0.3245124 -0.25541654 -0.10078841 0.13200073 0.094817124 -0.09112957 -0.24682447 0.25615242 0.21199383 0.46552506 -0.07083146 0.013484376 0.014527233 0.20070079 -0.12908936 -0.2171272 -0.16014 -0.02384173 -0.15819961 0.14760698 0.14158984 -0.11241877 0.48393467 0.13369027 -0.108459346 0.11895309 0.059755754 -0.17270134 0.020101342 0.13203491 0.045809716 0.027470214 -0.077309445 -0.16789581 0.09604304 0.12169476 -0.0038054124 0.22503725 -0.15904635 0.0131527325 0.18082954 0.43245602 -0.35266697 -0.14274177 0.13522014 0.09149758 0.09828004 0.051816314 0.02414311 -0.16843131 -0.0798302 -0.04351105 -0.13223086 0.07077239 -0.012868001
FilomenaTassi -0.48517027 0.21579686 0.11824904 0.056682013 -0.048296727 0.20189168 0.044954456 -0.07125594 0.39583498 -0.46863925 -0.16325457 -0.24093981 0.056658756 0.055703145 -0.31666058 0.048663724 0.2311 0.47994334 0.3748918 -0.03614884 -0.00571788 -0.050453547 0.31668115 -0.4413307 0.06229556 -0.29752788 0.1677527 -0.19740246 0.25970608 -0.03782839 -0.31977013 0.10081573 -0.07136708 0.24675871 0.181785 -0.008417917 -0.21121483 -0.1158808 0.2135728 -0.04015965 0.022767946 0.26905185 -0.31357008 -0.120434485 0.21303837 0.15635101 0.30730236 -0.22592025 -0.00485729 0.1783795 0.77519804 -0.23765704 0.13091186 0.5510557 -0.088145904 0.08270871 0.3240364 0.013786988 0.01601737 0.1339516 -0.3151464 -0.4057058 -0.17028074 -0.39050743
Carolyn_Bennett -0.18975656 0.26161033 0.002164554 0.045803934 -0.115885116 0.122167654 -0.07235501 -0.3268486 0.039852034 0.1444316 -0.16443376 0.20912364 -0.039761264 -0.29966724 -0.022606296 -0.060835622 -0.0933377 0.024397727 0.015067207 -0.33983377 -0.44311455 0.06438022 0.19365945 -0.095067956 0.009795334 -0.17668174 0.18518515 0.15350407 0.4397354 -0.24682307 -0.05389815 0.11132724 0.1272125 -0.06438753 0.14587079 0.1993367 -0.15283026 -0.12561595 0.116421126 0.017808221 0.13472772 -0.2934962 0.24472192 0.110271 0.2648603 -0.06781829 0.09754858 0.04430146 -0.04911779 0.25743344 0.2614697 -0.07909996 -0.2518039 0.46588203 0.1867458 0.0524781 -0.04412019 -0.15433809 0.07129933 -0.015941994 0.049393713 -0.13946375 0.13488333 -0.059843455
MPCelina -0.30469048 -0.019800596 0.087393254 0.34889653 -0.10096378 0.17332149 0.021998327 -0.08813802 0.1481402 0.07138363 0.010165347 0.26834345 0.19488558 0.098982215 -0.41695172 -0.15316302 0.3786388 0.46929917 0.15425034 -0.62022483 -0.08355854 -0.19414845 0.13505305 0.15283595 0.24032673 -0.011164068 0.6036651 -0.03463947 0.035500847 -0.36074376 -0.024748903 0.36135682 -0.16661078 -0.25681472 0.039747942 -0.17263684 -0.19746791 0.022565208 0.03405994 0.052152984 -0.23466617 0.0077564614 0.12619646 0.31819415 0.07881621 0.089976236 -0.051368676 0.024210177 -0.07960689 -0.028191958 0.40893906 0.2890571 -0.21731615 -0.11702987 -0.15442179 -0.098362684 0.047199946 0.3136921 -0.14627793 0.105527066 -0.24242549 0.090446934 0.31168136 0.16051659
DLeBlancNB -0.25136632 0.008872159 0.027715445 -0.0585434 -0.036559094 0.2571137 -0.2973097 -0.06416225 0.071086675 -0.03459307 0.093149684 0.066751376 0.083089575 -0.11938528 0.0013333438 -0.1621913 0.18182532 0.076424204 0.2844741 -0.20398588 -0.23528151 -0.044843744 -0.143392 -0.05662338 0.039533965 -0.2013061 0.27969316 0.15048616 0.25968826 -0.045839615 0.010905797 0.19907333 0.17881146 -0.24836178 0.06201232 -0.05954545 -0.3346152 0.22100344 0.18048668 0.11841067 0.12631704 -0.34909678 0.2873808 0.06965744 0.042791322 0.23107307 0.08338843 -0.13433196 -0.06321452 0.20131549 0.29582468 -0.12878987 -0.16591267 0.0370222 -0.12757571 -0.04893014 0.11341814 -0.18682562 0.12590075 -0.2622898 -0.26967373 -0.014430947 0.08900958 -0.062094886
SeamusORegan -0.264662 0.018395558 0.047136944 -0.3822765 0.19639362 0.2840116 -0.3787564 -0.14317904 0.16177903 -0.07694398 -0.1962557 0.10968264 -0.04441842 -0.091975376 -0.1340412 -0.14485273 -0.1545822 0.16277502 0.14677928 -0.23607954 -0.10772731 -0.10315477 -0.1354023 -0.3529521 0.15683503 -0.0385168 0.19952404 0.23384172 0.35897982 -0.07051366 0.08088353 0.033842366 0.16147722 -0.12902397 0.097346865 0.101925686 -0.015162779 -0.1583069 -0.013281021 0.130369 0.29082665 -0.12165073 0.22521672 0.30648372 -0.019615788 -0.027793616 0.20129469 0.1984188 -0.06255821 0.15730043 0.37928373 -0.16347711 -0.31778705 -0.17532404 -0.36146232 0.33291435 -0.032211915 -0.29453674 -0.031080937 -0.3488224 -0.04755047 -0.10904046 0.15808362 0.0026591471
MaryamMonsef -0.11979536 -0.28162086 -0.100215286 -0.2722826 -0.084910624 0.3666037 0.0127273 0.13297915 0.22215402 -0.15290932 -0.16241977 0.065943874 -0.08507786 0.014747274 -0.20792964 -0.2854423 0.18338299 -0.03448196 0.3150084 -0.26119962 -0.16759628 0.05631948 0.12283431 0.11991117 -0.072929956 0.0052605346 0.004352521 0.04076077 0.26109773 0.024532946 -0.18513548 0.41263202 -0.039854683 -0.21609586 0.09633311 0.12278177 -0.037268467 -0.13906729 0.012911516 0.06790031 -0.10961515 -0.22336206 0.047271118 -0.15574314 -0.10391076 -0.1358211 0.124530904 -0.07905476 -0.10371627 0.19527443 0.28313023 -0.03504133 -0.19041197 0.027198207 0.012790222 0.048032347 0.26586336 -0.11415078 0.06387005 -0.040400803 -0.14703663 -0.14472534 0.18725991 0.15103248
MarcGarneau -0.096383855 -0.022279141 0.18761902 -0.21301433 -0.10848488 0.21563457 -0.25007808 0.090370774 0.07861126 -0.143597 -0.054296035 0.24580744 0.18719032 -0.026696377 0.12384241 -0.243186 0.29367858 0.105191335 0.060828708 -0.018394127 -0.20670348 -0.017013837 0.16743124 0.21280164 0.039745517 -0.27706045 0.09288295 -0.033761945 0.19035824 -0.09747224 -0.12988926 0.34750986 0.15018591 -0.23093224 0.042117734 0.002365956 -0.35747224 0.16236259 0.15592037 0.011837558 0.054523446 -0.23756011 0.09333547 -0.15406126 -0.028220417 0.17227201 0.08028803 -0.19535285 -0.042047493 0.40010828 0.16420655 -0.22217523 -0.18164878 -0.1253459 0.0086190095 -0.024222687 0.14963423 0.021895027 0.107443765 -0.055075947 0.06213478 -0.120185986 0.07614061 -0.06554764
SohiAmarjeet -0.09716377 0.008965932 -0.37219423 -0.2829923 -0.31154674 0.3320522 -0.14246388 -0.14644068 0.2130911 -0.02178728 -0.22337998 -0.15911354 0.01283833 0.038344912 0.24777438 -0.30173212 0.18728656 0.15938738 0.4852565 -0.20722513 -0.07162088 0.060111295 0.1161626 0.23434116 0.08425549 -0.23691142 0.25120893 -0.034696534 0.1850904 0.084693275 -0.08959822 0.33784023 0.037400838 0.0024164354 -0.00810198 0.3033088 -0.19306824 0.19424868 0.14943758 0.045051556 0.015808731 -0.10441535 -0.073683 -0.13876353 0.21496582 0.18940155 0.09293066 -0.38506654 -0.1770989 0.18894002 0.2111526 -0.10437283 -0.06308712 0.028126402 0.17303877 0.07309298 0.15650876 -0.06170279 -0.20634784 -0.18066454 0.0052354303 -0.25621104 0.058014195 0.039296787
marcomendicino -0.17804341 0.044410035 -0.037751406 -0.100464836 0.020103283 -0.060222797 -0.0034724774 -0.23715384 0.16098686 0.19069506 -0.18175116 0.16556524 0.08536922 -0.34133998 -0.04425652 -0.15144499 0.15723881 0.21733001 -0.016376372 -0.10602654 -0.38387525 0.0853516 0.22926325 -0.14417976 -0.057539612 -0.18351749 0.14973056 0.06926612 0.4765012 -0.24382496 -0.049227916 0.075617984 0.06146067 -0.18482843 0.012111589 0.010356661 -0.3511109 -0.16405192 0.08487814 0.03613212 0.016565014 -0.08182792 0.24619903 -0.12466609 0.08190325 0.008934631 0.13670398 -0.107214086 -0.26816675 0.263053 0.1194728 -0.18846591 -0.09647058 0.19442232 0.07456295 0.06366563 0.23826167 -0.041690476 0.20741698 0.046249945 0.0042862333 0.011868267 0.077003755 -0.1446594
FP_Champagne -0.16966142 0.121838294 -0.2914131 -0.14581186 -0.13133822 0.23940933 0.035392974 -0.04740319 0.10027945 0.02332561 -0.13087378 0.10605966 -0.04191386 -0.27788076 0.06257676 -0.052147474 0.27020058 0.17278677 0.089923546 -0.081235 -0.028178083 -0.14098863 0.17282645 -0.082464896 0.28235352 -0.1066576 0.09853774 0.07937556 0.2851497 -0.09119352 -0.14483683 0.30428553 0.10369157 -0.002298035 0.14729145 -0.036720872 -0.3026862 0.124696225 -0.06425658 -0.032399774 0.07902014 0.07941509 0.1543316 0.011935514 0.1514823 0.07768095 0.18355145 -0.17248848 -0.28948012 -0.010713228 0.18257743 -0.01796587 -0.32561007 -0.13923435 -0.011041649 0.2332467 0.039644662 -0.22812156 -0.10276332 -0.18593231 -0.07093127 -0.095494375 0.09103348 0.019847611
mclaudebibeau -0.063635804 -0.09427402 0.008110459 -0.21198362 0.14309718 0.3709533 -0.15027368 -0.25528744 -0.049491182 -0.056418654 -0.54499966 -0.15146388 -0.14959155 0.041820318 -0.14305887 -0.2604115 0.15843314 0.07975297 0.15074232 -0.16526502 0.067177325 -0.017318131 -0.06489867 0.12578796 0.11035124 0.06089281 0.16707678 0.026159998 0.14488998 0.094023935 -0.20271711 0.4968819 0.16149089 -0.15772225 0.11298041 -0.019216035 0.110014565 -0.0881264 0.01957424 0.1268936 0.041141674 -0.16193117 0.0660822 -0.20658156 -0.1383977 0.07664633 0.21880423 0.09039207 -0.17749006 0.19575657 0.43477243 -0.35126397 0.16038813 -0.14434141 -0.012945525 -0.14070015 0.22398232 0.18279089 0.08291833 -0.10408807 -0.14203387 -0.12811588 0.10953796 0.0932854
KirstyDuncanMP 0.037380118 -0.023054624 0.06284064 0.06480454 0.027295094 0.6323935 -0.16946334 -0.043401517 -0.07314743 0.06455606 -0.08485502 0.26272163 -0.03318461 0.057912953 -0.26036608 -0.4196227 -0.00926442 -0.037658706 0.030568616 -0.22604358 -0.11953705 0.061178155 0.26182082 0.022892082 -0.0043572825 0.025825297 0.18917158 0.1555632 0.30833974 -0.010219634 -0.20773081 0.30288583 -0.10187322 0.092913374 0.31519854 -0.16835113 0.2194845 0.14534101 0.19094877 -0.11969999 0.073806524 0.12303554 -0.28819674 -0.1780743 -0.14666133 -0.06415755 0.2913565 -0.19779186 -0.13529617 0.3265443 0.40445942 -0.26285627 -0.14448602 -0.3852382 0.013989403 0.1483966 0.24729101 -0.15422963 0.14260827 0.041058954 -0.010932714 -0.22118703 -0.005460888 -0.048072502
jyduclos -0.2638532 0.04657681 0.22906938 0.012443562 -0.09541981 0.3673664 0.0009452074 -0.15055114 -0.10041884 -0.033516854 -0.10887953 0.19086322 -0.1180834 -0.020673545 -0.23836002 -0.05238707 0.26759672 0.28071925 0.22123301 -0.16272762 -0.4714619 0.08448848 0.30481932 0.32248092 -0.015975144 -0.0831073 0.39380935 -0.007908994 0.12676801 0.05497152 -0.01011154 0.30414 -0.038169984 -0.10002398 0.041104276 0.035496995 -0.122258864 0.18455009 0.13844357 -0.1873725 0.12109002 0.059164375 0.25834146 0.23904541 0.07494315 0.19903712 0.22633956 -0.16144304 -0.091746084 -0.012192861 0.33862558 -0.015622345 -0.10238537 -0.03989876 0.090023495 0.0047927243 0.07868831 -0.092419304 0.16628255 0.27823836 -0.03748299 -0.21796878 0.3605259 0.11877109
Rob_Oliphant -0.08951208 -0.06064305 -0.035974793 -0.019738697 -0.12209884 -0.013557705 -0.07798911 -0.17391105 0.34758303 0.19550061 -0.17678073 0.16861534 0.24883288 -0.28851777 -0.2953791 -0.30076736 0.15102363 0.15615085 0.033545926 -0.062760964 -0.21835577 0.027001683 0.009644186 -0.1371547 -0.21048641 -0.2284452 0.14803757 0.21093032 0.3834459 -0.029500285 -0.08738091 0.16604573 0.004426952 -0.11206262 0.04739293 0.045720752 -0.38500568 -0.032937765 0.30646315 -0.010237149 -0.06638717 -0.1259431 -0.15929542 0.054192312 0.043438822 0.019795414 0.06289328 -0.244183 -0.21492678 0.12977356 0.15673293 -0.028017625 -0.19564433 0.1564072 0.13352585 -0.13629207 0.015599634 -0.13109772 -0.1478245 0.19880454 -0.15051427 -0.14551404 -0.004474327 -0.21094163
GinettePT -0.14117606 0.10931672 0.01988446 0.07655478 -0.22788747 0.17405306 0.12297281 -0.1111263 -0.21124789 0.11494543 -0.11532815 0.006627147 -0.09296436 -0.14645496 -0.13171256 -0.11433843 0.28254703 0.16324364 0.16167338 -0.09671298 -0.17593592 -0.021933928 0.16176791 -0.09620835 0.09919967 -0.16407347 0.16208322 0.21845697 0.29652572 0.019179318 -0.26473308 0.36867887 0.08432445 0.00065516593 0.47508928 -0.1602328 -0.040206965 0.048317987 0.1003528 0.090643786 -0.06805615 0.07223184 0.053694874 0.041032817 0.14555322 0.10443926 0.19984034 -0.2964 -0.22452247 -0.10338634 0.46313277 0.14300895 -0.19149597 0.0800918 0.100737415 -0.06556229 -0.0012631733 -0.093836 -0.045470998 -0.18264604 -0.24658623 -0.05430163 0.049350336 -0.123924024
RachelBendayan -0.17180178 -0.21516438 -0.32601833 -0.155766 -0.016569365 0.27004275 -0.013823956 -0.3860227 0.15227477 0.07662501 -0.11691597 0.33012912 -0.118354894 -0.1779864 -0.17793521 0.115280345 0.25535834 0.47480902 0.18330617 -0.097014144 -0.23604175 -0.077621855 0.35645127 -0.07135144 -0.09077417 -0.45898214 -0.03729808 -0.069280215 0.27004096 0.0017788893 -0.0058217747 0.33506542 0.035304606 -0.24279201 0.2057305 -0.2814707 -0.2379281 0.2021778 0.045808595 -0.27997106 -0.19156553 -0.16938251 -0.007943541 -0.17977184 0.3417734 -0.05345881 -0.048170518 -0.2420311 -0.08773777 0.0255118 0.17683357 -0.3290778 -0.022261575 -0.03211834 -0.105301626 -0.3303305 -0.01425368 0.010614623 0.2931809 -0.09853485 -0.22171502 -0.12891094 0.00960788 0.035937686
BernJordanMP -0.37911475 0.05395838 0.046361998 -0.28802437 0.03225006 0.25205362 0.010352879 -0.20882678 0.015357631 -0.13893653 -0.19089428 0.15270324 0.089767985 0.050751273 -0.0051023774 0.045720495 0.33233294 0.1378052 0.096175775 -0.20237657 0.029439213 -0.010168531 -0.02107486 0.0007553778 0.29732084 -0.17599471 0.08427658 0.24329565 0.47317985 0.034091715 -0.12990981 0.18094033 0.026485968 -0.007363482 0.20055562 -0.1356511 -0.05188319 -0.12207718 0.26202294 0.19552866 0.3063586 -0.06918302 0.33146966 -0.11492167 -0.26728958 0.063143186 0.3286166 0.04841354 0.034591965 0.06638445 0.23939268 -0.08710439 -0.09961627 -0.007077435 -0.025934327 0.03324363 0.0013609213 -0.22739626 0.26968688 -0.07346487 -0.1489768 -0.05726994 -0.0033836707 -0.21673155
janephilpott -0.20054677 -0.093540676 0.21230973 0.03880813 -0.14175299 -0.06239671 -0.1840942 -0.18250498 0.24564941 0.21166708 -0.13452138 0.07001517 0.1935997 0.028644195 -0.21071596 -0.19569528 0.119732 0.4772579 -0.13321614 -0.38641587 0.09085963 -0.016589424 0.17750117 -0.031713843 0.16294397 -0.08413699 0.5277643 0.11435997 0.30441335 -0.44154537 0.1518481 -7.343094e-05 0.20813343 -0.40732166 0.04865145 0.019601025 -0.0551359 0.04799776 0.14147858 0.26951557 -0.077630594 0.20664704 0.09522975 0.3753983 0.13279876 0.29382753 0.034122866 0.11923917 -0.13618343 0.018866794 0.387501 0.25700846 -0.5672298 -0.17223616 -0.316684 0.14018099 0.09331894 0.02784741 -0.13965605 -0.06452456 -0.019828903 -0.19445646 0.22194605 0.010865031
mary_ng 0.045767263 -0.32060954 -0.1339637 -0.20441821 -0.15332025 0.41473395 -0.17138995 -0.06986836 0.027196031 -0.019912964 -0.28591484 -0.032345876 0.014032958 0.10790905 -0.055779878 -0.19157854 0.20909765 0.08315433 -0.037810013 -0.21286176 -0.07718215 -0.04987683 0.2935906 0.26063484 0.035236087 0.043592326 0.20521714 0.16709536 0.22499773 0.011025958 -0.3189678 0.35805726 0.12563752 -0.15949169 0.1873502 0.13858117 -0.039882697 -0.032515384 -0.009569773 0.034197778 -0.13586609 0.06573761 -0.006766053 -0.35852557 -0.09662626 0.035887305 0.24645962 -0.0118403435 -0.37200692 0.03359799 0.09785668 0.1048364 -0.1717549 -0.074572235 0.1398501 -0.11341745 -0.038428064 0.04761391 0.055321157 0.08389776 -0.095160685 -0.36977136 0.11215494 -0.03662803
R_Boissonnault -0.26625103 -0.20748384 -0.078389764 -0.01481358 0.006556267 0.39030108 -0.17575882 -0.015585357 0.30954504 -0.23469 -0.3945377 -0.14166118 -0.2874102 0.1157763 0.06892081 -0.1155477 0.15563545 0.13533047 0.25685722 -0.45011345 -0.04769185 -0.02720795 0.12497357 0.03774991 0.17153321 0.08456539 0.28008872 -0.28305137 0.26711294 -0.15026776 -0.14469263 0.38813993 0.074194506 -0.22368282 -0.06663698 0.07353088 -0.04082229 0.16423891 0.09887944 0.18403135 -0.027226452 -0.14304343 0.05751527 0.061957832 0.008484072 0.1167942 0.12028744 -0.042662874 -0.15008318 0.1602109 0.3428606 -0.11418575 0.024998855 0.17857575 0.03793875 -0.029298522 0.24499814 0.1489822 -0.13929449 -0.059117347 -0.16196077 -0.07365088 0.02715007 0.0070982934
melaniejoly -0.4396212 0.020520896 0.0046419622 -0.13182794 0.028876597 0.1651095 -0.120356016 -0.16879368 -0.12376111 -0.2767969 -0.29191703 -0.008371457 -0.01741515 -0.19350769 -0.117325574 0.044858977 0.33872327 -0.05208069 0.03132475 -0.029831542 -0.23172702 -0.3856139 0.39432758 0.26875255 0.08592314 0.022974018 -0.03324526 -0.093886234 0.32623294 0.26190716 -0.3415855 0.31382066 0.058170274 -0.09853536 0.17388187 -0.27602893 -0.106197745 0.08835119 -0.10077727 -0.091044396 0.2293054 -0.0027059782 0.3141885 0.07937658 0.15126327 0.10442649 0.28459716 -0.03767523 -0.21186782 -0.30725938 0.24032657 -0.17954461 -0.13633086 -0.24883085 -0.22690156 0.010475364 0.16794491 -0.13696787 0.2141875 -0.010253929 -0.22244936 -0.18894738 0.25376865 0.21674694
PattyHajdu -0.2141366 0.09284314 -0.059059102 -0.057490014 -0.120722316 0.32389215 -0.22486477 7.960823e-05 0.077120155 0.055580627 -0.13606502 -0.010641116 -0.12756667 -0.02967879 0.052822303 -0.19856305 0.008542846 0.076969996 0.13793997 -0.45168087 -0.18989594 0.043230414 0.05280705 0.13120463 0.10671657 -0.06822222 0.1676757 0.06346778 0.2944464 -0.2613638 -0.16340634 0.23009044 -0.0066665644 -0.09419884 0.04082104 -0.030996285 -0.015427147 0.012855518 0.2888055 0.017923154 0.123824224 -0.055395413 0.049463384 0.059876576 0.028092468 -0.03303718 0.24528682 -0.11956489 -0.16895965 0.24929662 0.23394546 -0.02079278 -0.25858632 -0.02383665 -0.083279416 0.19060163 0.00028312157 0.03116922 -0.1115411 -0.098679915 0.0920654 -0.19302283 0.1758208 0.06334973
karinagould -0.3444216 -0.14595526 -0.00450671 -0.1519633 0.026806515 0.10713778 -0.05227938 -0.073233336 0.031018397 0.056889255 -0.225119 0.062434487 -0.14071557 -0.08308884 -0.16562685 -0.22228535 0.2578133 0.1241839 -0.0075341463 -0.116601765 -0.28284538 0.051909566 0.047791943 0.054771252 -0.060088363 -0.10191773 -0.060984787 0.11363747 0.38449916 0.02737218 -0.10777102 0.22864476 0.15939897 -0.21829736 0.10566108 -0.07442146 -0.12688567 -0.10030698 0.20982456 -0.023504728 0.121601105 -0.047563992 0.039763592 -0.031089645 0.036935702 -0.0007137687 0.22183071 -0.32368734 -0.11702557 0.09892085 0.108062334 -0.13274534 -0.34688225 -0.010181375 -0.10140333 -0.04037225 -0.09966993 0.012799785 0.0078085917 -0.043476753 0.09142421 -0.22201066 0.060961425 0.14257929
Puglaas -0.1462546 0.071201235 -0.059714805 0.012723086 -0.14346518 -0.06848444 -0.26456255 -0.1388432 0.03939033 0.14778842 -0.038475167 0.1697675 -0.05242399 0.2440284 -0.23968662 -0.49415186 0.15843332 0.16429052 -0.040082313 -0.35131496 -0.12394565 0.07366876 -0.09641567 -0.033625223 0.25086227 -0.10857092 0.4960578 0.27618277 0.19508128 -0.10771037 0.23581786 0.37401652 0.13461523 -0.14415058 0.19571938 0.07104675 -0.05388882 0.050079986 -0.12313192 0.21687374 -0.18065847 -0.1409851 0.13557512 0.13694881 0.29741722 0.027872939 0.19406518 0.15144214 -0.32129803 -0.087494925 0.5744478 0.35311052 -0.47242787 -0.19546975 -0.016526802 0.12448116 -0.009894489 0.04456887 -0.16765994 -0.08993512 -0.15746182 0.02553444 0.16598101 -0.004541947
AndyFillmoreHFX -0.4269338 0.087578386 0.064343125 -0.3430193 -0.05717732 0.2633148 0.15286538 -0.17455801 0.1383579 0.03390335 -0.1454369 0.4653769 -0.044884376 0.11174679 -0.035960637 0.11821725 0.5025782 0.38554263 0.1614097 -0.21578926 -0.14835435 0.06885066 -0.017838951 0.08100522 0.32939485 -0.3570746 -0.07125882 -0.06389039 0.40900353 -0.16067004 -0.07919497 0.20880187 -0.060478397 0.16453665 0.091595545 -0.16894437 -0.020578222 -0.22532415 0.22559497 0.16245395 0.23840404 -0.21215652 0.30468315 -0.16366266 -0.30586204 -0.15583734 0.303671 -0.027944546 0.08830254 0.22600967 0.18501988 -0.21901692 0.13658172 -0.21181189 -0.0867058 0.3156612 0.035864457 -0.14533317 0.22692154 -0.0267306 0.047474317 0.0013404343 -0.0467554 -0.13001405
CQualtro 0.31137377 0.07657553 0.04894382 -0.08704025 -0.2990128 0.2879486 -0.013344686 0.333633 -0.009220945 -0.0013391178 -0.21671697 0.100665845 -0.012666484 -0.0555208 -0.066968575 -0.27754074 0.43109286 0.041035898 0.02265196 -0.26482552 0.082720414 0.18811323 -0.011958863 -0.017324314 0.20158035 0.10664235 0.20598629 0.21070254 -0.005258113 -0.24080488 -0.06257611 0.21780108 0.3732702 0.022336 -0.0012000958 -0.12235035 -0.1296648 -0.04882193 -0.008807041 0.112840526 0.028145798 -0.12968361 0.07838795 -0.186349 0.0397283 -0.070088565 0.13967688 -0.22956885 -0.3398613 0.21159057 0.19870558 -0.012833523 -0.6712877 -0.022070926 0.23682547 0.39247173 0.23223448 -0.05948671 0.16627432 -0.38266948 -0.06947272 -0.30044717 0.31082484 -0.27844334
Chris_Bittle -0.3008028 -0.33616525 -0.19649719 -0.14254627 0.058357734 0.15573357 -0.06822673 -0.31614047 0.21603231 0.19990228 -0.119267546 -0.028062787 0.3335577 -0.070858344 -0.034614492 -0.22101204 0.1551668 0.364946 0.016166007 0.18548061 -0.34791735 -0.10732267 0.2826995 -0.33414215 -0.28135192 -0.020163344 0.12037519 0.22267821 0.2637156 0.13081783 -0.22599037 0.14480834 0.40033266 -0.027345045 0.085404366 -0.10539721 -0.24683255 0.093560696 -0.016566465 0.0038592196 0.20767076 0.0062856013 0.03139543 -0.069110215 -0.16392837 0.065780945 0.42503893 -0.16906118 -0.18088517 0.1911288 -0.15476108 -0.20837405 -0.19775908 -0.29563537 0.06379804 0.28819507 -0.14373457 -0.2412548 -0.010946049 0.12072463 -0.11009037 -0.32120743 0.097496346 -0.08576438
DavidLametti -0.14554866 0.08518479 -0.08400799 0.099626295 -0.15879585 0.26591572 -0.36952168 -0.3676324 0.021620914 0.14178513 -0.33098245 0.27448964 -0.23757283 -0.30442518 -0.06336156 -0.13661377 0.15435717 0.2113256 0.11922262 -0.28976157 -0.33381936 -0.037957497 0.1260676 0.0952859 0.06583038 -0.24915731 0.21001028 -0.11966734 0.30852497 -0.07664363 0.040244505 0.2385987 0.060009148 -0.20482749 0.07027727 0.15954262 -0.06268735 0.024791162 -0.007203592 -0.076609865 0.07448066 0.049021557 0.24528828 0.15377118 0.22883573 -0.078691594 0.07213602 -0.0069149765 -0.11275126 0.095764555 0.11798903 -0.15135379 -0.15314525 0.08285809 -0.15765366 0.080982335 -0.014749192 -0.09425181 0.014592113 0.18281825 -0.118473835 -0.20234707 0.21356058 0.08353361
SeanFraserMP -0.3514673 0.016228897 -0.044632636 -0.16577277 -0.18642396 0.09255019 0.0022600023 -0.23521602 0.24625553 0.053289972 -0.261637 0.19749627 0.307854 0.06562347 -0.2539434 -0.26222745 0.1876526 -0.01706511 0.15595832 -0.13394347 -0.01601906 -0.020663235 0.14354998 -0.049512144 -0.16020624 -0.17710732 -0.09511432 0.13909593 0.39468816 0.04228829 -0.1511682 0.15493983 -0.041565556 0.120833576 0.01100708 -0.38404346 -0.24781464 -0.24985884 0.31596723 -0.050505284 0.1641954 -0.30024 0.093749695 -0.04779874 -0.22132565 -0.124153614 0.3497093 -0.07912699 -0.14588079 0.15281509 -0.0441795 -0.23037252 -0.17376588 0.08864514 -0.04694524 0.18994352 -0.0036000658 -0.2838088 0.1876216 0.10739166 -0.018627493 0.0006176941 -0.07416936 -0.19371614
MarcMillerVM -0.17601359 -0.033514623 0.14681801 -0.120596156 0.10206234 0.17770347 -0.0793082 -0.11873382 0.23705716 0.19375752 -0.22365111 0.17407662 -0.21251121 -0.33682474 -0.22451812 -0.14861746 0.14763522 0.17612761 -0.036301855 -0.21023457 -0.39074266 0.235972 0.056443404 -0.21731456 -0.14604478 -0.1250109 0.19911441 0.2246248 0.41703108 -0.105529964 0.32183823 0.11953674 0.20475544 -0.16171168 -0.15276796 0.038182702 -0.16867127 0.08106697 0.15725556 -0.1276626 0.064796 -0.23888376 0.36538297 0.35468766 0.28991792 -0.18253139 0.22421144 -0.039781332 -0.23113182 -0.11109054 0.20488453 0.024791438 -0.39686903 0.20331295 0.07503233 0.19051158 0.12946132 -0.106007025 0.20715179 -0.044000562 -0.102363594 -0.07402978 0.18785524 -0.14137185
AlainaLockhart -0.26122862 -0.3489751 -0.14503369 -0.40623707 0.0078048585 0.28109568 -0.09307642 -0.34116656 0.077679045 -0.18342872 -0.49957195 0.039679777 -0.109733336 -0.19162321 -0.3013926 0.13362871 0.32726452 0.06849803 0.43684268 -0.14843704 -0.114813596 -0.32651147 -0.24329388 0.011207691 0.2592775 0.028176533 0.022804862 -0.13475987 0.26817468 0.25453407 -0.060937732 0.24052279 0.06386431 -0.29971012 0.08738745 -0.101212196 -0.092446074 0.082767665 -0.031919852 0.091071226 0.0154055115 0.03685181 0.27508393 0.15081033 0.0502626 0.12384676 -0.040760174 -0.20172198 -0.13244465 -0.059193257 0.097295456 -0.34921676 -0.06852423 -0.26560217 -0.08453735 0.08648051 -0.019189116 -0.2827349 -0.11522531 -0.0045993775 -0.093126066 -0.063392915 0.14534451 0.20321989
KamalKheraLib 0.20621938 -0.022729777 0.06280699 -0.053658348 0.09811383 0.21077779 0.035051145 0.017875388 0.043379996 0.17946416 -0.3111885 0.30794626 0.19893569 0.008908392 -0.651731 -0.15408172 0.24496406 0.074894205 0.12751457 0.09545831 -0.14979862 -0.104961604 0.2049559 -0.32310402 0.25891712 0.26368064 0.36261323 -0.012122432 0.28255734 -0.010236092 -0.28583002 0.2783263 0.12165954 -0.32841083 0.1319323 0.008161744 -0.27217686 -0.033155438 -0.20057029 0.15600303 0.084982716 -0.10516362 -0.0014815005 -0.105625495 0.15699072 0.06126884 -0.040442597 -0.27920792 -0.20392556 0.22553131 0.20748295 -0.22596149 -0.106622376 -0.29372427 0.08557956 -0.06490601 0.27336213 -0.25627342 0.024005728 0.1270504 -0.3213847 -0.14223547 -0.25201613 0.08322925
kenthehr 0.013149564 -0.15967992 -0.07384635 -0.14094155 -0.0071487846 0.25449693 -0.1447201 -0.0052104373 0.2104459 -0.17178378 -0.18617941 -0.05573162 0.07885788 0.039843224 0.04814995 0.017981721 0.33082977 0.3280668 0.042670734 -0.31511065 -0.11747218 -0.009601102 0.07113387 0.07266104 0.14163277 -0.046979174 0.2775878 -0.15994032 0.2137672 -0.1509152 -0.06319608 0.20904927 0.22702047 -0.10710154 -0.07922621 -0.022485355 -0.20934664 0.14616951 0.010294803 0.17161937 -0.03528941 -0.13146256 0.06452602 -0.3164856 0.0436523 0.060622733 0.14707765 -0.15335838 -0.16480732 0.13438983 0.21202938 -0.15118653 -0.005005872 -0.14139844 -0.021265697 0.061201584 0.18876769 0.09971242 0.13872835 -0.037977964 -0.18672526 -0.25250491 0.12484963 -0.09133344
FilomenaTassiMP -0.076390415 -0.08224829 -0.06875411 0.10710312 -0.3114551 0.16824909 -0.10102856 -0.099739954 0.21738812 -0.06905602 -0.19469333 0.17287892 0.2735247 -0.09632833 -0.11607376 -0.22208284 0.2078276 0.2007617 -0.008645492 -0.298741 -0.09148879 -0.23363534 0.42109087 -0.048492398 -0.039728396 0.020196201 0.03798369 0.06924471 0.0865417 -0.05514436 -0.29628196 0.3534714 0.18857127 0.07824849 0.108035244 -0.17740202 -0.09738259 0.02830271 0.04127545 -0.06273235 0.13227083 0.056172058 -0.2670835 0.062585324 -0.12904315 -0.051580552 0.23933671 0.029139625 -0.16115862 0.133275 0.111727476 -0.10369061 -0.2994761 -0.10994761 0.11143656 0.18625437 -0.1731527 -0.25730252 -0.0450373 0.0049727424 -0.08832159 -0.34220707 0.18096781 -0.15302788
GregFergus -0.16886611 -0.29973578 -0.008473238 -0.026229814 -0.468486 0.22335815 -0.20150688 0.059157647 0.0067658643 -0.07622034 -0.1155257 0.27199712 0.16374262 0.04012568 -0.32469124 -0.067299396 0.0066426313 0.22261356 0.016588269 -0.26709136 -0.19164036 0.103479244 0.10214501 0.25041947 0.21711272 -0.2785248 0.13751882 0.06839914 0.30536896 -0.19965726 -0.04466735 0.27700323 0.07495608 0.06463927 0.13693589 -0.23313439 -0.103693165 0.060426775 0.1186499 0.043535586 -0.23326632 -0.18189211 0.14732805 0.07854387 0.11954334 -0.037284505 0.1894735 -0.24503438 -0.14713669 -0.19422203 0.37902543 0.16478327 -0.15105729 0.08702744 0.020178987 -0.04309584 -0.2856433 0.062662974 0.02998298 -0.046602987 -0.048024487 0.007783724 0.068686545 -0.18090649
JonathanWNV -0.09749259 -0.16782108 -0.08153102 -0.14642286 -0.2571495 0.37767732 -0.41473618 0.022885919 0.09054077 -0.24884138 -0.17489189 0.15041922 0.20851228 -0.15308017 -0.2162665 -0.050686464 0.046776857 -0.17398208 0.2879937 -0.19253007 -0.05688445 -0.15382367 -0.08490995 0.15415165 0.052119993 -0.14180636 -0.14127287 0.1608776 0.23408736 0.18115231 -0.11757492 0.17022401 0.029903533 -0.24011256 0.16461715 -0.34396803 -0.22145595 -0.027096339 0.22768714 0.008267431 0.14335154 -0.23689634 0.29454407 0.1275425 0.12505038 0.067011274 -0.026813684 -0.14661191 -0.15136138 0.034043983 0.1313795 -0.2830341 -0.39895922 0.016820574 -0.06238825 -0.11403849 -0.17026158 -0.18029502 0.08052472 -0.20166127 -0.075092986 -0.1059721 0.1987217 0.004857864
SalmaZahid15 0.013517605 -0.14835925 -0.032458846 0.09503146 -0.050549332 0.10228661 -0.15098295 -0.09594144 0.04756643 -0.047448482 -0.09026761 0.04700635 0.30148163 -0.17315292 -0.19920391 -0.3272644 -0.047234017 0.045401026 -0.030620884 -0.2755922 -0.37668124 -0.05846038 0.22625358 -0.11934388 -0.26606852 0.080169454 0.26522812 0.246924 0.3086019 -0.048453677 -0.31071696 0.22351722 0.10339065 -0.09233529 0.18161435 0.07315009 -0.22865714 0.12076168 0.07142943 0.006375275 -0.0851947 -0.12054862 -0.22216338 -0.13485456 -0.14071704 0.0721044 0.08266101 -0.046988614 -0.2521727 0.39977542 0.282281 -0.1095957 -0.07954989 0.089287266 0.22912638 -0.17311843 0.043251373 -0.28670198 0.007204072 0.09382197 -0.16154203 -0.17715092 0.03134243 -0.089360125
NickWhalenMP -0.22544159 -0.012383013 0.35023862 -0.3129148 0.18627225 0.4358099 -0.2229543 -0.11868252 0.057565905 -0.24006778 -0.08474525 0.120705254 -0.04174176 -0.36555162 -0.010174585 0.08784886 -0.027789516 0.24733151 -0.07862717 -0.2129671 -0.22128922 0.087509096 -0.05207719 -0.18101302 0.06950886 -0.06868515 0.15467827 0.36561298 0.48132294 -0.15641958 0.11666538 -0.05065412 0.05003437 -0.21462385 0.20956929 0.009908667 -0.07932918 0.014001575 0.12385641 0.12874499 0.2577394 -0.004566547 0.36410043 0.26112267 0.024563005 0.09240698 0.25058332 0.0677416 -0.00918142 0.28410998 0.2996523 -0.17489344 -0.52437335 -0.15346003 -0.090345025 0.11830902 -0.12857902 -0.21634497 0.122432105 -0.09302743 0.07703706 -0.1896559 0.19585279 -0.011495834
PamDamoff -0.13822971 -0.082403556 -0.0799472 0.04544179 -0.05029355 0.10444037 0.053840958 -0.4120999 0.0918863 0.115301475 -0.1838678 0.15864219 -0.018807143 -0.23235844 -0.12607297 -0.20801106 0.14990035 0.13761437 0.0110770585 -0.2330727 -0.35470194 0.13099727 -0.040509317 0.022685872 -0.13460512 -0.18279447 0.17687225 0.28544047 0.24650086 -0.0084013 -0.01495996 0.1865572 0.18540362 -0.066053264 0.06612948 -0.042526394 -0.0021598975 0.010717659 0.19053416 -0.021901611 0.10796039 -0.2843122 0.1615817 -0.030972466 -0.17243093 -0.06704966 0.2648815 -0.08823455 -0.076679714 0.18828268 0.25936976 -0.12613471 -0.12382618 0.036667097 -0.06897522 -0.24393028 -0.053182654 -0.23825026 0.12091752 -0.01534115 -0.2797106 0.005872825 0.24341477 0.03695804
pablorodriguez -0.3193666 -0.12849525 0.16170844 -0.2181042 -0.25643942 0.2869759 0.16537303 0.015481573 0.41698697 -0.34254244 -0.38926503 -0.11578312 0.018674932 -0.2412206 -0.31130084 0.03761436 0.27038676 0.098469466 0.37874088 -0.05767652 -0.1849486 -0.27559987 0.25022689 -0.30886954 0.093644634 -0.22001982 0.06462449 0.07866381 0.14428045 0.021322316 -0.20864855 0.052300412 0.0261375 0.19951007 0.10195719 0.20784792 0.011357878 -0.041247763 0.3303482 -0.30179423 -0.07163205 0.2992334 -0.110624224 0.20126471 0.11589301 0.001320744 0.20307058 -0.2919715 -0.33603555 -0.07542594 0.4623767 -0.115353055 -0.054842234 0.293629 0.1881218 0.17562167 0.10215372 -0.17883524 -0.24418558 -0.0043136515 0.08965903 -0.28071964 0.11312344 -0.32163134
scottbrison -0.2835902 0.019327233 -0.03973093 -0.4548663 -0.012644928 0.14622468 -0.02266643 -0.16612032 0.11859121 0.049348217 -0.14607695 0.31740144 0.10371044 0.20890526 -0.16880909 -0.1869658 0.25799903 0.13767949 0.15396789 -0.33602116 0.12595318 0.06755444 -0.14042422 -0.018315215 0.25952017 -0.2627823 -0.027920255 0.3217309 0.315587 -0.07544574 -0.121988595 0.1977425 0.0578037 0.073618546 0.30810466 -0.15619116 0.04383081 -0.08644676 0.28468996 0.12972054 0.06898596 -0.35396475 0.11764974 -0.15477754 -0.10425852 0.026942158 0.20670743 0.052943025 0.060036097 0.1497805 0.32787898 -0.1367782 -0.17532901 -0.1627971 0.03216876 -0.0027349337 -0.0023837367 -0.18917377 0.18372962 -0.24056935 0.048168503 0.017754074 0.022767957 -0.05749573
_DebSchulte 0.108295254 -0.21567123 -0.040217068 0.0728899 -0.30873978 0.22012722 0.19614702 -0.009434841 -0.03461431 -0.0028089597 -0.1676495 0.06779696 0.1609011 -0.4644466 -0.14096338 -0.17144683 0.21683322 0.34931317 0.24979933 -0.023000587 -0.09928818 0.009724528 0.38933164 0.047211353 0.09106139 -0.13838807 0.1609089 0.12545668 0.11377951 0.029921964 -0.37755224 0.34669358 0.049970258 0.04004755 0.21763231 0.16987804 -0.3012855 -0.037292827 0.035886902 0.023436973 0.11979072 0.28417015 0.0066723456 0.012945493 -0.15643358 0.1821087 0.124324396 -0.2531647 -0.30467266 0.12441871 0.4158585 -0.26061004 -0.07607078 0.11809392 0.16252397 -0.1562301 -0.25076976 -0.036089133 -0.17147027 -0.047215186 -0.09149841 0.01283036 0.19184744 -0.055475775
BardishKW -0.07122544 -0.18782255 -0.1369532 -0.11054899 -0.27048495 0.23352505 0.034880795 0.004360803 -0.15155168 -0.12864548 -0.39779472 0.22890139 -0.15359202 -0.16319542 -0.21709973 -0.11375846 0.35108843 -0.09926508 0.11788564 -0.38884833 -0.21303804 -0.08743542 0.14326392 0.20036757 0.17479911 -0.07058499 0.068651035 0.15801768 0.04946894 0.06147194 -0.35281894 0.21000317 -0.0064739455 0.20919847 0.2181543 -0.032948848 0.036920313 0.032735236 0.079187416 -0.115014456 0.06838836 0.03849381 -0.03785533 -0.19289272 0.022373294 -0.109705195 0.14360309 -0.054939892 -0.15740702 0.011282981 0.28687903 -0.29985854 -0.2548276 -0.30091545 0.04301629 -0.04323673 0.026365893 -0.004447281 0.15137339 0.1216068 -0.11682914 -0.15619572 0.18924321 -0.044703737
JeanYip3 -0.3090154 0.014031142 -0.18366913 -0.1411248 0.2506894 -0.12213504 0.026779871 -0.32155123 -0.006661025 -0.011020946 -0.114864185 -0.08969356 0.18205944 -0.058931172 -0.22169223 -0.28983176 -0.1116282 0.41053012 -0.008337738 -0.37686926 -0.38926336 -0.2573356 0.33149227 -0.34958786 -0.1282345 0.15195663 0.35155568 0.47375977 0.21610853 -0.086935535 -0.5098167 0.29946643 -0.17351872 0.015337302 0.48848578 0.10951316 -0.19059488 0.04744738 -0.051868632 0.0069374368 -0.1567867 0.043441385 -0.39113933 0.03826775 -0.08730943 0.047109194 0.12325828 0.109069206 -0.40836033 0.3828591 0.33646 0.05056078 -0.14179257 -0.27828977 0.3413354 -0.33552432 -0.07389601 0.042637117 -0.18248267 0.02814978 0.018336013 -0.031793933 0.13121945 0.13212809
RodgerCuzner -0.3904423 0.04795834 0.29686356 -0.23110998 0.047072157 0.19738536 -0.101810805 -0.27258652 0.12362475 0.13925081 -0.25202307 0.09726825 0.096380524 -0.076936096 -0.21482265 0.048936084 0.12514971 -0.026674923 -0.068088 -0.065959066 -0.19595854 -0.048031528 -0.12624831 -0.015749112 0.1719746 0.03505367 0.21283111 0.18110804 0.4064929 -0.12041525 -0.09351031 -0.070408046 0.36941004 -0.028965548 0.04315557 -0.14761561 -0.0446081 0.108790055 0.47686398 -0.03860047 0.09935189 -0.18614604 0.4830808 0.15149541 -0.043180253 0.31056628 0.4109411 -0.18433219 -0.2917441 -0.19530803 0.12825689 -0.10721882 -0.21855009 0.24017555 0.2183 0.17448524 -0.082912505 -0.43906468 0.1417202 0.064737245 0.07341413 -0.023293806 0.13277037 -0.14014228
DarrenFisherNS -0.2839422 -0.02088643 -0.006140932 -0.38521332 0.13836497 0.31978184 0.36877787 -0.08614554 0.0478767 0.13160184 -0.12676032 0.22078742 0.14101633 -0.09592168 -0.14934686 0.024341436 0.43044293 0.2585741 0.049140383 0.09741522 -0.030368106 -0.08153943 0.09620296 -0.023940047 0.27405596 -0.18798508 0.04147897 0.21069694 0.33633518 -0.072949186 -0.16547188 0.30155978 0.09801628 0.12344579 0.05432205 -0.2562318 -0.15828235 -0.26694486 0.099512085 0.06432792 0.31461814 -0.06266552 0.27485943 -0.12678552 -0.3657717 -0.051386937 0.4558204 -0.11625476 -0.115926184 -0.056490034 0.28171864 -0.058933217 0.015303443 -0.3549018 -0.2250932 0.28471512 0.13985908 -0.12257426 0.14383204 -0.14790145 -0.19500613 -0.0186785 0.10676986 -0.12086067
YvonneJJones -0.348554 0.15504555 0.15218475 -0.18483664 0.046134736 0.01432682 -0.22320572 -0.23120555 0.03338342 -0.24534766 0.05987285 0.03287245 0.2689697 -0.41576627 0.094481215 -0.05629402 0.038599715 0.23542506 0.06359494 -0.10959657 -0.31059277 -0.029061645 -0.2768881 -0.114194565 0.06526619 -0.2952181 0.21243495 0.3823394 0.38235587 -0.1457915 0.16858119 -0.020189138 0.17788686 -0.27057996 0.21337976 0.24612659 -0.2969879 -0.1164068 0.1670268 0.19937448 0.33346617 0.0648165 0.38791728 0.27853858 0.101217024 0.08776843 0.08944515 -0.0124317985 0.0885734 0.35256144 0.33464906 -0.09655249 -0.71904564 0.015376504 -0.20137092 0.11919423 -0.14560321 -0.13945654 -0.031925127 -0.13373585 0.09062254 -0.19026642 0.46388325 0.07390393
FuhrMP -0.09044303 -0.109740995 -0.12999313 -0.19558972 0.09711944 0.15900657 0.23078169 -0.12052324 0.05196935 0.39206916 -0.35228598 -0.22832708 0.13465127 -0.0070873117 -0.22228955 -0.31601977 -0.0297271 0.30442828 0.2829986 0.16048607 -0.35378295 0.2689047 0.08679778 -0.36020848 -0.13819419 0.018604832 0.15326141 0.093304865 0.14005202 -0.3051062 -0.0921132 0.17996876 0.5072633 0.1563137 -0.1773782 -0.09565747 -0.07297958 -0.37973386 -0.078292 0.3767911 0.15310276 -0.5259476 0.3603791 -0.018168746 0.033007115 -0.5067323 0.3235556 -0.34034824 -0.42701036 0.38326988 0.18436778 -0.14016946 -0.29230627 -0.123647876 0.014872268 0.552967 0.38944823 0.32763484 0.18447648 -0.1634627 -0.18294811 -0.16152819 0.47618252 -0.027262637
MarkGerretsen -0.033960745 -0.13249329 -0.14854665 -0.13898002 0.23233996 0.054188933 -0.046152346 0.08766207 -0.045039717 0.43779498 -0.29350314 -0.17844538 -0.02068962 -0.36705363 0.0025194865 -0.4683902 0.21683261 0.29105452 0.03721653 0.3449906 -0.45977682 0.06498953 0.06602248 -0.54942596 0.08591925 0.19309188 0.045334242 -0.019745676 0.3209446 -0.0674497 -0.04952589 0.3702078 0.5181631 -0.054696795 0.02670616 -0.08393363 -0.09601914 -0.34104872 -0.34062287 0.39274636 0.26573446 -0.14714488 0.52172935 -0.12198954 -0.04426563 -0.056886 0.49059376 -0.11654352 -0.55752397 0.13590166 0.4085268 -0.28395975 0.06647167 -0.21057242 -0.0009942396 0.36937672 0.44087756 0.11293548 0.0976282 -0.33958533 -0.24371862 0.122665375 0.1522521 -0.14816576
MattDeCourcey -0.20490068 -0.046317697 -0.3229073 -0.29596117 0.0047243778 0.25095817 -0.0685887 -0.30152592 0.09592005 -0.04910901 -0.35294506 0.069029264 -0.07042677 -0.078097776 -0.009239655 -0.12706468 0.098539114 -0.09912745 0.2922716 -0.17503312 -0.07408231 -0.1606932 0.0065836012 0.117553174 0.21378414 -0.11518255 0.07235095 0.038724985 0.35428292 0.14050539 -0.11424051 0.27904934 -0.016969811 0.017903032 0.042808887 0.016465025 -0.09580805 0.14048979 0.104763895 0.0005866801 0.1861408 -0.078014016 0.11518509 -0.032992374 0.073705114 -0.05004166 0.15781413 -0.06417074 -0.09548564 0.11170875 0.13568842 -0.29482543 -0.2821577 -0.2524265 0.034106445 0.074305035 0.041369002 -0.18692379 -0.20607194 0.12626074 0.012304948 -0.08679901 0.02249815 0.10275826
karenmccrimmon -0.16857508 -0.17891178 -0.12184945 -0.08092666 -0.08120754 0.17636332 -0.406183 0.24734335 0.143159 0.25561607 -0.29645523 0.12163127 0.09644182 -0.13511358 -0.335342 -0.38438714 0.0034664115 0.15472296 0.007959178 -0.25914997 -0.16356213 0.061443508 -0.113364786 -0.17011668 0.11263404 0.004302452 -0.14704461 0.10560654 0.23858114 -0.30973345 -0.09578327 0.10991043 0.0948984 0.0574714 0.045711912 -0.47160748 -0.07398916 -0.18676615 0.08354734 0.21749721 0.07564151 -0.37437448 0.06728764 -0.048931263 0.09553512 -0.29786217 0.24594867 -0.028882422 -0.29056126 0.29377294 0.15133354 -0.15556385 -0.21966913 -0.30663955 -0.1366057 0.2475579 0.23539692 0.23266456 0.07595338 -0.15712377 -0.06857861 0.013575481 0.13114439 -0.15070829
JoelLightbound -0.15513891 -0.29807684 -0.04710243 0.21200866 -0.16538486 0.000609556 -0.04581533 -0.17036298 0.4309973 -0.13851434 -0.29277024 0.3002327 -0.1496653 0.029815847 -0.60564744 -0.39731228 0.35441294 0.19798625 -0.20744057 -0.14554673 0.06485847 0.26420254 0.06047759 0.0016868893 0.3283169 -0.2434686 0.40839022 0.25000212 0.26171702 -0.050558936 0.4626173 0.25590986 0.02713311 -0.14868617 -0.09417644 0.11094705 0.13664275 0.21984383 0.12042772 -0.037679143 -0.18270124 0.17971802 -0.022576015 0.12760781 0.12351101 -0.025135124 0.067662284 -0.1767212 -0.24087125 -0.22476374 0.61414176 0.33059126 -0.40628177 -0.07263223 -0.21012273 -0.26208732 0.2707865 -0.19579598 -0.005356236 0.32560533 -0.39423376 -0.17666504 -0.025484689 -0.02718461
SeanCaseyLPC -0.4365092 -0.10193567 0.2182675 -0.3810325 -0.0013197635 0.21631925 -0.29957408 -0.23183067 -0.09605602 -0.16669892 -0.34057027 0.12929013 0.3546892 0.6651899 -0.49768916 0.038173776 -0.18890893 -0.17469981 -0.0090645915 -0.45354185 0.006365157 -0.16240244 0.25530905 0.16180322 0.28924164 0.30021945 0.40541348 -0.29507452 0.52043325 -0.06643047 -0.05870853 -0.0659424 0.2335018 -0.08247234 -0.021917762 -0.12921819 -0.24723315 0.034694996 0.016363565 0.079128504 0.16216302 -0.4713219 0.102327235 0.24049495 0.0054301997 0.37436926 0.24899562 -0.17184852 0.032695152 -0.22363202 0.23422238 -0.25414652 -0.18997638 0.18682882 -0.04099381 0.21704036 -0.37290525 -0.4982308 0.21554218 -0.13287391 0.18894173 0.013951414 -0.12339431 0.14871594
TOAdamVaughan -0.12514266 -0.20279022 -0.067353316 0.09278974 -0.00997109 0.25883865 -0.17200442 -0.2136951 0.16312812 -0.134781 -0.2281477 0.1351811 -0.037164114 -0.26308617 -0.22684698 -0.13959762 0.17271268 0.15061091 -0.09294775 -0.30502015 -0.2844694 -0.0042194203 0.11300691 -0.039724126 -0.14014442 0.009509976 0.26409715 -0.0155861685 0.37693286 -0.07578002 0.16271953 0.2917311 0.104742646 -0.28313985 -0.06579678 -0.04258994 -0.059093487 0.14851609 -0.020743668 -0.117780305 -0.23049273 -0.054531433 0.15319818 0.12699418 0.033503763 -0.13053973 0.1832234 -0.09089169 -0.24629171 -0.16128871 0.21376589 0.114702225 -0.13707803 0.15909828 -0.10001698 0.017065456 0.026738707 -0.1405964 0.12087746 0.0037343767 -0.2798098 -0.12830813 0.16599748 -0.053842027
PLCLaPrairieJCP -0.3166302 0.027173303 -0.04986992 -0.16876255 0.069855906 0.030827753 0.045285866 -0.057319462 -0.0027242375 -0.30125087 -0.26174393 0.024990564 0.11876479 0.22628282 -0.26953256 -0.18777582 0.1594522 -0.05210922 -0.062128097 -0.21382953 0.11606733 -0.1683302 0.16839284 0.316012 0.39774138 0.16530527 0.10593731 -0.07441459 -0.048548136 0.17819053 -0.29127717 0.45206153 0.3961622 0.13467418 0.13453075 -0.019325985 -0.090802945 -0.010186047 0.008438142 -0.03128725 0.35728347 -0.2554062 -0.08003786 -0.10300713 -0.06709463 0.49035192 0.15039386 -0.042376764 -0.13430353 -0.16342796 0.8173486 -0.36301348 -0.04607783 -0.0852203 0.058637872 -0.19363369 -0.07689569 -0.24181518 0.1940902 -0.24050492 -0.088535696 -0.13083705 0.2980896 0.29226315
RuddKim 0.1526038 0.63532823 -0.024613468 -0.09402321 -0.057055473 -0.1889372 -0.22731125 -0.45266977 0.083754435 0.1092821 -0.6288585 -0.14700645 0.25113449 -0.015502531 -0.1565423 -0.5918734 0.22194946 0.05461617 0.33517578 -0.36550847 0.35694703 0.03919282 -0.04739369 -0.31217927 -0.06614343 0.0052723465 0.29225552 -0.09405835 0.46738765 0.12601358 -0.1705633 0.5546227 -0.15536366 -0.39897645 0.16084804 0.27710754 -0.4165738 -0.38772604 0.009004892 0.11597493 -0.013176851 0.205083 0.10572651 -0.26903048 -0.06419016 0.07664193 0.18746084 0.036949642 -0.33222312 0.40177494 0.2006951 -0.022790672 -0.1017697 0.34339464 0.12595032 0.090877056 0.15548253 0.045043375 0.11558105 -0.16511887 -0.08319609 -0.087484814 -0.115677685 -0.23795797
KateYoungMP -0.019797517 -0.4130709 0.109627 0.11277942 -0.36418304 0.5362208 -0.13495882 0.23981379 -0.19340895 0.11363894 -0.45773372 0.329761 -0.20560902 0.06410759 -0.3380905 -0.5042711 0.26711774 -0.053983636 0.20045534 -0.17354764 0.018397128 0.032777462 0.24742071 0.008807913 0.091413476 0.062033623 0.0852383 -0.035213035 0.19727646 -0.02894768 -0.3588228 0.25292012 0.057322294 -0.07468405 0.064025216 0.1043367 0.24608512 0.15454575 0.071896076 0.1532845 0.30702347 0.31605947 -0.35932937 0.014157269 -0.37638798 -0.3272023 0.29007226 -0.27838287 0.076900326 0.3779035 -0.0014687479 -0.4265163 -0.39991352 -0.4102219 -0.15519953 0.36999398 -0.165278 0.010615297 -0.3065564 0.09383889 -0.043239538 -0.36291155 0.00011776123 0.0036549626
OmarAlghabra -0.16008805 -0.21543992 -0.192414 -0.15856445 0.18888742 0.23100466 0.022709347 -0.10898224 0.06741112 -0.034978177 -0.27121863 -0.26441023 0.023444159 -0.009746611 -0.16238776 -0.3058262 0.10990074 0.12383195 0.32280666 -0.086059 -0.24108976 -0.058897514 0.2481885 -0.14780526 -0.26648113 0.15649326 0.4435941 0.14785628 0.23656292 -0.009229885 -0.30282658 0.33706713 -0.02628769 -0.14804642 -0.07792217 0.18438037 -0.10114016 0.015581836 0.026446696 0.14311244 0.05400684 -0.1096081 -0.14080249 -0.024473129 -0.030509658 -0.071783036 0.21821833 -0.07790379 -0.24475145 0.25893006 0.37197697 -0.23601823 0.0855774 0.06482422 0.17293961 -0.031215116 0.41894373 0.035127174 -0.17878196 0.13448666 -0.2607276 -0.026951933 0.10795059 0.11778631
WayneEaster -0.23288439 -0.06740326 0.27455154 -0.4686572 -0.0715153 0.30499524 0.005236267 -0.14984359 -0.20279665 -0.004784914 -0.39143503 0.27588004 0.27958956 0.5578388 -0.40934986 -0.005256805 0.26849365 -0.27226365 0.31052515 -0.019203488 -0.031042224 -0.22885904 0.048639607 -0.20593403 0.2911057 0.23748137 0.45638096 -0.13605674 0.36306497 0.017935166 -0.09319881 0.10320282 0.47879282 -0.11134087 0.0594345 -0.09656638 -0.34209698 0.1117592 -0.25657168 0.10847971 -0.0779576 -0.7590022 0.27336007 0.15819103 0.103525154 0.19641209 0.0869118 -0.20137261 -0.07261332 -0.32258192 0.1709953 -0.25602323 -0.31965834 0.12146462 0.20916808 0.42951444 -0.10177261 -0.5504894 0.2999248 -0.4958567 -0.074951485 0.18389101 -0.19893217 -0.010799579
joycemurray -0.3311864 0.060442567 0.27542531 0.014739634 -0.1166482 0.010393033 -0.0800282 -0.0059626875 0.14984529 -0.06361055 -0.07845867 0.32185093 0.037917696 0.032205127 -0.3399325 -0.12203375 0.31943494 0.40494856 -0.07548345 -0.36123443 -0.09089272 0.13066931 -0.020679535 0.0536264 0.30249727 -0.13035789 0.07278613 -0.0461108 0.18767823 -0.18914191 0.056540996 0.19318669 0.10193675 -0.16247971 0.048261292 -0.072695374 -0.115228206 -0.13958442 0.1272582 0.1342507 0.20541972 -0.16398253 0.022374034 0.054599658 -0.12909529 0.16643688 0.13864277 -0.18165983 -0.022789314 0.30409744 0.3920238 -0.10493395 -0.12421626 0.033135217 -0.020833217 -0.07645967 -0.19344895 -0.042084787 0.14111239 -0.19967404 0.045821086 -0.16561913 0.14317213 0.05153781
SvenTrueNorth 0.11816109 -0.16487652 -0.15253131 0.1302703 0.12883335 0.35729653 -0.22643118 -0.07039576 0.075099684 0.12077397 -0.21756704 0.10902693 -0.056066364 -0.13550189 -0.5525066 -0.36439666 -0.05873152 0.28214863 0.09349683 -0.2845835 -0.25316706 0.09019073 0.20584363 -0.18675052 0.023106135 0.14846513 0.3120528 0.13148616 0.169481 -0.09798122 -0.1090925 0.29288802 -0.0395053 -0.07184091 0.15327032 0.01983006 0.10699488 0.08305364 -0.05495569 -0.0656446 -0.14775608 0.08588393 -0.26872483 -0.09323972 0.13235834 -0.21742123 0.18529254 -0.068078384 -0.44201678 0.28029504 0.42815357 -0.15437293 0.047697585 -0.17488125 0.14124218 0.042547517 0.25418323 0.03198863 -0.005541441 0.18701498 -0.1783044 -0.20647432 0.04964969 0.13786818
MarcSerreMP -0.4326266 0.7405081 -0.3598927 0.017151013 -0.31957397 -0.04510476 -0.023407264 -0.26991406 0.19934878 0.40154412 -0.44625255 -0.05881011 -0.07618719 -0.2125793 0.46539646 -0.23698635 0.19080861 -0.4158337 -0.10332294 -0.4261941 0.071070395 -0.35493696 0.3395865 0.20145047 0.44369608 -0.33264217 -0.02609233 -0.22534786 0.5541449 -0.12916465 -0.27351174 0.41490605 0.17098624 0.110374615 0.00833927 0.13129766 -0.39440778 -0.019664517 0.15998712 -0.11193698 0.42522416 0.12292548 0.16407582 -0.027011726 0.054700147 0.20078443 0.22015849 -0.20172153 -0.37149552 -0.08894459 -0.044590406 0.18432784 -0.52121603 -0.14015636 -0.41725197 0.31365505 -0.089586236 -0.14204559 -0.33326477 -0.16162466 0.05448105 -0.42930555 -0.13998184 0.0823724
pfragiskatos 0.07174505 -0.2808839 -0.053143695 0.109088846 -0.2111639 0.56742334 -0.1271369 -0.017795494 -0.0598836 0.10333391 -0.28372768 0.2455512 -0.087012805 0.13526058 -0.1374572 -0.37607867 0.06438342 -0.11393576 0.17958672 -0.26386115 -0.051457208 0.08506964 0.4082763 0.11256628 0.050246082 -0.07351728 0.036843862 0.03732908 0.25020155 0.03078466 -0.34953865 0.2019245 0.067622624 0.036379877 0.120864 -0.12067937 0.3173608 0.23514663 0.16837782 -0.09389448 0.1594757 0.13992815 -0.13906534 -0.17797098 -0.21561018 -0.093170114 0.2778978 -0.20111899 -0.051252928 0.30520108 0.28683925 -0.42308646 -0.1824562 -0.23878518 0.04675835 0.16677773 -0.11996902 -0.19005857 -0.11062116 -0.003925241 0.0037021507 -0.16669981 0.089431435 0.036719784
LevittMichael -0.124819845 0.08291894 -0.30907255 -0.1984131 0.036020916 0.17774126 -0.16292667 -0.27515334 0.23924628 0.070526846 -0.2104355 0.2838473 -0.02610884 -0.2559674 -0.11590305 -0.010568019 0.092411235 0.37390956 0.25767836 -0.25862867 -0.22709192 -0.10286765 -0.043937888 -0.3477881 -0.024595486 -0.25943366 0.12424096 0.11773099 0.2994538 -0.2510731 -0.26554844 0.18672755 -0.11649517 -0.061033763 0.35501814 -0.023598189 -0.24273822 -0.15446407 0.20095363 0.01784814 -0.19310842 -0.20642006 -0.11980813 -0.22912891 0.29426137 -0.08375632 -0.041579373 0.07546859 -0.17757286 0.3593332 0.37814638 -0.3426724 -0.027865577 0.27007866 0.17909525 -0.17471895 0.045381553 -0.015282967 0.011261904 0.045169417 -0.10949461 -0.02967614 -0.16859464 -0.19082671
ChurenceRogers -0.30465865 0.2666317 -0.13732299 -0.5195985 0.31225023 0.09038888 -0.16065498 -0.23149242 0.12326132 -0.30078027 -0.010620112 0.03552694 0.097657345 -0.085273966 0.01973817 -0.05116422 -0.026254606 0.4409702 0.025351766 -0.47422835 0.050575215 -0.17164047 -0.1374872 -0.33700973 0.19648337 -0.031202286 0.20215075 0.6070601 0.36255634 -0.10761794 -0.21929221 0.14356807 -0.17408557 -0.13119777 0.47161162 -0.023169912 -0.15440539 -0.04662397 0.13066983 0.17925961 0.21741678 0.08571248 0.024043666 0.079844 -0.106228426 0.19487977 0.18651849 0.31541327 -0.0976541 0.3567571 0.38366956 0.01840263 -0.4350859 -0.44449604 -0.024208413 -0.024404963 -0.015019612 -0.28325477 -0.01316775 -0.1825797 0.027865067 -0.018267319 0.11525325 0.04874879
MPJenOConnell -0.21795586 -0.091069646 -0.037641313 -0.2897007 0.09209343 0.031693812 0.088824116 -0.32318932 -0.1273302 0.083708756 -0.44150263 0.09730014 0.0670054 0.08003324 -0.25166747 -0.09976499 0.32147092 0.1107751 0.01530401 -0.2991606 -0.21049765 -0.19542243 0.17460632 -0.3916757 0.0143373 0.25985068 0.35797292 0.11148546 0.35035816 -0.085136145 -0.09070638 0.20575738 0.19059835 -0.16801903 0.16886404 0.079794526 -0.012429867 0.06892449 -0.24352908 0.041722707 -0.083072305 -0.3003976 0.14755346 -0.05868082 -0.007971044 -0.010216502 -0.03782689 -0.09186973 -0.15700775 0.009156212 0.17005806 -0.021087216 -0.1113936 -0.13095094 0.23186468 -0.15149446 0.13479999 -0.33713007 0.34991142 -0.14433989 -0.16777617 -0.027061665 -0.08173462 0.12842779
SoniaLiberal -0.0191906 0.00862835 0.06315495 -0.06477985 -0.07447414 0.099146485 -0.18751884 -0.10784457 -0.09655993 0.16905546 -0.29773313 0.36077097 0.21848625 0.004943761 -0.5175059 -0.05490826 0.37584183 0.14382355 0.03011747 -0.2282079 -0.2867477 -0.40937763 0.3061358 -0.15169989 0.2940821 0.06762949 0.36732352 0.053481348 0.25256118 -0.0371886 -0.35302007 -0.046166364 -0.12491235 -0.08232536 0.27642062 -0.19093038 -0.108093664 0.041412607 -0.15286668 0.07984565 0.042033274 -0.078024685 -0.1737307 0.014240479 0.20921353 0.12494986 -0.19101708 -0.14453705 -0.14361453 0.09058144 0.2583272 -0.15557663 0.0317743 -0.5483733 -0.019480698 -0.114225276 0.25279436 -0.23620121 -0.0056079784 0.17994618 -0.23292772 -0.12580521 -0.10588074 0.051883318
MonaFortier -0.054574415 0.13557868 -0.33063897 -0.16867451 -0.1294156 0.07181759 -0.3768145 -0.27944294 -0.020445297 0.20722224 -0.32949302 0.45545655 0.014712773 -0.1266425 -0.5117017 -0.25790733 -0.16106069 0.45456222 -0.027083958 -0.4034004 0.009272944 -0.05564081 -0.24559595 -0.014964627 0.20826505 -0.13536103 -0.15349367 0.10817285 0.28023437 -0.16385436 -0.22711954 0.37178224 -0.26541913 -0.0070127626 0.3406812 -0.4837424 -0.025699949 -0.050443836 0.031823438 0.054684583 -0.33576548 -0.14059992 -0.110027984 0.09868939 0.040945236 -0.36220825 0.056982428 -0.032146882 -0.37892547 0.2570927 0.067936786 0.04254245 -0.16555351 -0.37708578 -0.06377458 0.20357618 -0.2566595 -0.033347253 -0.054154016 -0.074212335 0.023764214 -0.0012462148 0.17727977 0.07905201
gary_srp -0.05647087 0.07680961 0.03224535 0.07747679 0.010856493 0.14271091 -0.21155941 -0.024835732 0.0063752616 -0.055873696 -0.17376357 0.08468883 0.0611868 0.009250809 -0.2644644 -0.19522677 0.1077492 0.23843144 0.054839283 -0.3776933 -0.37573224 -0.114844814 0.15001538 -0.2512648 0.10071928 0.086620055 0.45888528 0.057797346 0.26085857 -0.20889722 -0.32307118 0.20077541 -0.03523672 -0.006617806 0.104566 0.23440978 -0.11262768 0.04452313 -0.035183012 0.124498285 -0.040397964 -0.0072683296 -0.18631417 -0.13366221 -0.094498016 0.01622985 0.10852233 0.040521424 -0.30394322 0.49407002 0.4037947 -0.03309064 0.11286849 0.057783224 0.21299008 -0.029113969 0.10426777 -0.17179856 -0.09934916 0.24581307 -0.14911066 -0.26212865 -0.11777192 -0.10600498
iamIqraKhalid -0.08728149 -0.107500866 -0.07293522 0.06415063 0.049050782 0.08352478 -0.3504268 -0.29826567 0.19850406 0.1646503 -0.38390622 0.20261458 -0.09091018 -0.019505952 -0.3847438 -0.39895207 0.12381259 0.127345 0.0328368 -0.3460712 -0.34975785 -0.03340988 0.16282849 -0.12660772 -0.1503291 0.080588594 0.26922938 -0.14621529 0.35442913 -0.03745229 -0.15018995 0.28540686 0.011912474 -0.24307789 0.04529947 0.23716435 -0.033526234 0.22122334 0.10239324 -0.14011529 -0.101909555 -0.020258047 -0.37298045 -0.007647856 0.08967766 -0.0579631 0.08976309 -0.12576567 -0.2231689 0.31785905 0.05682747 -0.1857931 -0.09306436 -0.04221928 0.16003048 -0.04884424 0.115992144 -0.07602705 -0.09314731 0.25303552 0.014892233 -0.3923625 -0.07169469 0.047825642
Gudie -0.14946598 0.064774305 -0.06034176 -0.48459503 0.24067183 0.23857132 -0.31568405 -0.35862875 0.20388961 -0.3612543 -0.21959269 -0.043689493 0.15849905 -0.3812933 -0.0017519089 0.18216465 -0.17462012 0.18597646 0.048054848 -0.18591486 -0.13740376 -0.16767864 -0.23120269 -0.17840661 0.18843937 -0.012534431 0.13351242 0.24063948 0.35094544 0.07712181 -0.02173538 -0.032356944 0.048146263 -0.24075861 0.22829211 0.14797498 -0.36811492 -0.120275505 0.03207784 0.10267029 0.2977797 0.1531098 0.32205126 0.0167067 -0.0028289834 0.29618156 0.18250175 0.14515549 -0.19890887 0.30705124 0.2042786 -0.367977 -0.32883844 -0.21214838 -0.062347166 -0.0041114236 -0.22652 -0.38896683 -0.004262725 0.05720484 0.098536976 -0.18231651 0.1765436 0.0862347
terrybeech -0.028137213 -0.0852674 0.14890188 -0.20671888 -0.25611374 0.33547643 -0.2115714 0.26326737 0.15822738 -0.23328722 -0.122283064 0.16409811 0.1788924 -0.0410446 -0.065931514 -0.0986706 0.20402187 -0.05953871 0.1676935 -0.22625798 -0.008025816 0.08276332 -0.12911348 0.4007258 0.30797073 -0.23548327 0.017365372 -0.044861145 0.17636235 -0.171736 -0.13076685 0.23381157 0.24488738 -0.27771205 -0.012356416 0.120935716 -0.32956442 0.1887411 0.30091235 0.12508592 0.034788907 -0.16546299 0.018838063 -0.34051892 0.019562053 0.15090081 -0.022253191 -0.30059034 -0.08195565 0.3463413 0.21752013 -0.19347747 -0.22912884 -0.0500554 -0.0246441 -0.07374184 0.1605772 0.07283335 0.09975916 -0.12425895 0.013652418 -0.26326492 -0.00092813856 -0.064516194
LloydLongfield -0.13693625 -0.066639096 -0.27046785 -0.10788699 -0.31584346 0.3397541 -0.10392384 -0.10699283 0.26480293 -0.17011821 -0.12873502 0.0987867 -0.026277551 -0.21894722 0.085395 0.006735488 -0.025425656 0.16093889 0.06738957 -0.5018585 -0.05906305 -0.0094755255 0.14197218 0.06267904 0.16549358 -0.15974814 -0.15436034 0.05575593 0.2755686 0.008842484 -0.15922624 0.16016515 0.0018596732 -0.013745247 0.27134886 -0.024909906 -0.13269152 -0.14994663 0.05311902 -0.006333437 0.08558679 0.32768205 -0.038641978 -0.28529045 0.018357499 0.04111388 0.2289469 0.03594975 -0.24955167 0.33291113 0.16794308 -0.28001383 -0.28693202 -0.064718954 0.043973528 0.11980214 -0.2310478 -0.12480163 0.022787297 -0.0552219 0.14761634 -0.3073334 0.08007792 -0.10665671
avalonMPKen -0.31231427 -0.06228268 0.11865357 -0.51396525 0.39265904 0.34560272 -0.25044444 -0.20769823 0.06434704 -0.62878823 0.118775025 -0.044507306 0.3066436 -0.36612138 -0.12069233 0.36573887 -0.2340759 0.38042337 0.107663184 -0.3552829 -0.38482141 -0.2643704 -0.16570003 -0.3507783 0.043136053 0.054476585 0.40348908 0.5225719 0.51284206 -0.0012025554 0.058685582 -0.13486323 -0.099009536 -0.4795483 0.30675077 0.11815354 -0.3546541 -0.31680462 -0.15539284 0.2781368 0.41227153 0.16327213 0.34528136 0.28929424 -0.055595197 0.08103584 0.23222847 0.36995077 0.054964285 0.28611994 0.34827995 -0.16427128 -0.44967178 -0.1642331 -0.27625644 0.086447075 -0.28718197 -0.35898384 0.089273304 -0.093830846 -0.16376281 -0.059019268 0.38974816 0.089990355
GordieHogg -0.29889622 -0.06421011 -0.49177867 -0.12646258 -0.1875806 -0.32469654 0.03504546 -0.22871442 0.059729587 -0.22767583 -0.1214774 0.029260669 0.33872584 0.19893223 -0.32783428 -0.31689727 -0.36592516 0.10258749 -0.0964562 -0.545057 -0.1861275 -0.086894244 0.1506263 -0.03701186 0.09732957 0.1953419 0.1534225 0.40763843 0.32394582 -0.21213572 -0.15704784 0.12214292 -0.0024281722 0.13436043 0.27369273 -0.45729113 0.04431108 -0.14335744 -0.07701787 0.16461743 -0.015720703 -0.15965188 -0.3851903 0.17773288 0.07568672 -0.23079923 0.26102838 0.20283872 -0.2188682 0.15910786 0.4852501 0.112439886 -0.680739 -0.3442206 0.08984956 -0.07936125 -0.04034455 -0.05529244 -0.091906786 -0.20572239 0.024647206 0.050444834 0.30573878 0.11555159
Francis_Drouin -0.18416685 0.033626962 0.031727295 -0.16532771 -0.103872806 0.21134396 -0.31876567 -0.10732915 -0.051429894 0.03929627 -0.29371768 0.08497888 0.24916813 0.052568465 -0.25735345 -0.17576045 0.29638994 0.16686231 0.14833982 -0.21381816 -0.023317482 -0.22503388 0.008566387 0.14775652 0.12908411 0.028830849 -0.020601384 -0.23080908 0.18674086 0.06631021 -0.053722396 0.46541798 0.13260952 -0.07469941 0.044287927 -0.29537898 -0.1348444 -0.16863774 0.00087419694 0.053713772 0.19257453 -0.16493651 0.05992755 0.0303998 -0.08609307 -0.07687399 0.21742804 -0.23145232 -0.10021626 -0.037438013 0.07709744 -0.16131192 0.06049904 -0.214789 -0.14098714 0.3433942 0.0014226135 -0.047891807 0.19629231 -0.21691906 -0.12200137 -0.13375612 0.272761 -0.008265049
KarenLudwigMP -0.32391116 0.12399677 -0.2414644 -0.46280614 0.020656193 0.19823588 -0.22809677 -0.44066182 0.0655662 -0.049078185 -0.34238237 -0.11339176 0.10521134 -0.09060316 0.010732795 -0.038952135 0.0042622522 -0.3111568 0.19536936 -0.29545838 -0.32136422 -0.355853 0.010823273 0.35169655 0.044663377 -0.03246714 0.11955644 -0.027006296 0.46456814 0.24532841 -0.23926468 0.07486815 -0.071022935 -0.07739477 0.084946476 0.079400554 -0.31232563 0.058360778 0.27126446 -0.09400605 0.090657055 -0.050719135 0.18740164 -0.10495573 0.041498482 0.22976941 0.10860248 -0.17908078 -0.37313333 -0.05023469 -0.08525467 -0.12920749 -0.098663606 -0.2455672 0.014129414 0.16576472 0.17235467 -0.37671787 0.07141459 0.15335234 0.10630412 -0.124834575 0.16128843 0.03374561
MikeBossio -0.033686675 0.14198102 -0.072057925 -0.22250576 0.13041596 -0.20926517 -0.06745543 -0.3113556 0.19763792 -0.12928931 -0.27161548 -0.099502355 0.10938451 -0.051085748 -0.39389902 -0.3560101 0.31895113 0.48573202 -0.09334803 -0.19866334 -0.11614587 -0.037173804 0.16704583 -0.0902295 0.17575164 0.07673003 -0.20566419 -0.20492075 0.14272389 0.367661 0.2777829 0.31526774 0.24471478 -0.17209406 0.21966295 -0.10973244 0.15158583 -0.62319195 -0.21940535 0.32421306 0.36365557 0.22223069 -0.01086037 -0.2516965 0.035746742 -0.11448463 0.22538558 -0.13120814 -0.5703557 0.18779719 0.5239747 -0.22875588 0.022894809 -0.53798777 -0.22497484 0.34539366 0.3298564 0.08702181 0.46239614 -0.4774108 0.03712673 -0.43534008 0.3422357 0.064369276
fsorbara -0.058118515 -0.0155840805 -0.15226336 -0.25051335 -0.06018359 0.10268212 0.0034391477 -0.28798237 0.13044816 -0.19577406 -0.48017564 -0.01718908 0.2467103 -0.25185075 0.12267656 -0.11567823 0.31281364 0.27062094 -0.020342419 -0.29683837 -0.09204187 -0.40544254 0.35216537 -0.08016543 -0.14883675 0.016961165 0.10256042 -0.08505396 0.12252342 -0.15865868 -0.35323933 0.43564746 0.12576985 -0.013617426 0.017416354 0.07607229 -0.09410689 -0.05703782 -0.070531905 -0.07311827 -0.10625452 -0.026650267 -0.19600044 -0.20131926 -0.2990927 -0.27846944 0.15079227 0.0041492525 -0.37345368 0.17126809 0.046209846 -0.16580577 0.050703753 -0.13530397 0.08939906 -0.10314637 -0.094747216 0.056112356 0.1614855 -0.25929636 -0.11372573 -0.23456106 0.19451773 -0.1578578
JudySgroMP -0.09463419 -0.002340643 0.03249693 -0.14847605 -0.15937258 0.061001323 -0.08846923 0.063257016 0.19978017 0.1868329 -0.2663295 0.27659947 0.20662846 -0.25527352 -0.17544843 0.023358302 0.4064556 0.14832279 -0.012398212 -0.16885376 -0.24524172 -0.18470986 0.22065343 -0.031529397 0.121653534 -0.058821484 0.17152107 0.14479785 0.10823307 -0.26711982 -0.3283216 0.04300707 0.15444429 0.036826424 -0.16076888 -0.06584307 -0.39824075 -0.08809387 0.25128934 -0.13751704 0.27953142 -0.15409288 0.15581606 -0.11240107 0.09538475 0.03507393 0.1420408 -0.09743902 -0.23873827 0.08941024 -0.061232425 -0.2835213 -0.24669375 -0.0023163673 0.22458656 0.0520332 -0.07051917 -0.012486285 0.020732667 0.12907453 0.050086237 -0.1945058 0.1093819 -0.25257796
TerryDuguid -0.35374293 -0.22403519 0.21061106 -0.023586374 -0.1782168 0.30772868 -0.18941818 -0.011269903 0.26892504 -0.24171723 -0.23060548 0.16180064 -0.029756742 0.11306572 -0.17853935 -0.35770383 0.12608284 0.16876617 0.08258529 -0.3667342 -0.1940711 0.24971592 0.014713395 0.076785944 -0.27724224 0.053162113 0.06316652 -0.2018748 0.22237702 -0.17486472 0.05945493 0.5347287 0.3339944 -0.30194786 -0.15431337 -0.00702732 0.028851302 0.2066189 0.096223176 -0.07505585 0.007486761 -0.5151804 -0.056569073 0.2793418 -0.15397158 -0.07131527 0.3431452 -0.069864765 0.16134559 0.06161448 0.29022983 -0.091029175 -0.013052111 0.34278458 -0.09311124 0.0004253999 -0.16468674 -0.12066084 0.13665232 -0.2882099 -0.19059458 -0.10876363 0.17464244 0.09692949
anitavandenbeld -0.25691056 -0.103550404 -0.08876662 0.0595027 -0.24593297 0.09497782 -0.2972458 -0.07887188 0.1580167 0.06238415 -0.3541565 0.091367476 0.068847984 -0.24354284 -0.3913741 -0.1934191 -0.2854148 -0.06941948 -0.03621179 -0.13831009 -0.29529825 0.038333666 -0.07060091 0.02848424 0.07739807 -0.19021527 -0.41241816 -0.054536495 0.25369692 -0.15535894 -0.10652471 0.09610253 0.18655074 0.23183359 0.15188146 -0.6674203 0.006360323 -0.18556245 0.13856295 -0.018043723 -0.18501966 -0.4859683 0.19353493 0.048045218 0.13787849 -0.3039254 0.24175304 -0.23332743 -0.49778238 0.09218004 0.2565437 -0.27123675 -0.252156 0.020173255 -0.10898921 0.066870555 -0.057542447 0.06346228 0.13865696 -0.12254544 -0.040440805 0.048034407 0.35804176 -0.036412198
LefebvrePaul -0.2598559 0.7715239 -0.13754949 0.30393788 -0.29570293 -0.2976997 -0.23896712 -0.3385672 0.33985084 0.11964536 -0.51191354 -0.26017913 0.09138839 -0.42427674 0.593677 -0.42239255 0.070872195 -0.25866857 0.27823177 -0.6348085 -0.19046722 -0.2868614 0.3300815 0.068275005 0.27042672 -0.11863732 0.10816936 -0.4855967 0.7854575 0.002950781 -0.17909335 0.17920646 0.09319812 -0.0300027 -0.055306494 0.13754612 -0.2751466 0.25478524 0.28818703 -0.06355557 0.4752663 0.586386 -0.08995547 0.14486437 0.20022053 0.010403603 0.23547198 -0.25014958 -0.26457295 0.094143525 -0.030847749 -0.091629885 -0.4122672 -0.28316954 -0.3126073 0.33110192 0.32008103 0.10575702 -0.27583462 -0.23239458 0.11984619 -0.20723982 -0.12633814 -0.22431202
DiLebouthillier -0.35042626 -0.04674034 -0.10069898 -0.030203922 -0.100519896 0.10763725 -0.07697505 -0.16442369 -0.025064185 -0.06470569 -0.26159778 0.06395063 -0.116409145 -0.17382963 0.02135787 -0.14969894 0.4053181 0.1463966 0.06091266 -0.24704412 -0.14547376 -0.21047866 0.1317826 0.106040485 0.07588432 -0.18448256 0.06343735 -0.1967729 0.1929425 0.026513495 -0.05814054 0.4098812 0.22466539 -0.11610852 -0.047039784 -0.045937512 -0.05060589 0.3209535 0.095242724 -0.11127053 0.08845751 0.025664944 0.024321144 0.050803605 -0.13669434 0.0019262948 0.19125634 -0.3820395 -0.1710763 0.009122914 0.12649234 -0.1393203 -0.21569866 -0.08802363 -0.17115366 0.06392717 -0.14320691 -0.14327751 0.033908684 -0.2204996 -0.091150776 -0.2379481 0.28560922 0.1505966
JulieDzerowicz -0.2961766 -0.20107685 -0.024769519 -0.055119906 -0.19362417 0.074219994 -0.05911608 -0.2532034 0.18501873 0.08811497 -0.36092132 0.12928441 -0.05395946 -0.17315444 -0.101791896 -0.099624105 0.19346462 0.25332776 0.0015637303 -0.07825776 -0.38625738 -0.042559322 0.06146791 -0.13835482 0.02322899 -0.20988287 0.07655305 0.0478402 0.29935536 -0.1196926 -0.17429538 0.16328077 0.18050317 0.03716046 0.106285796 0.13710037 -0.100857235 -0.004741426 0.08352164 0.059256002 -0.1726689 -0.10229631 0.01496434 0.09467405 0.040281545 -0.029103689 0.09518398 -0.08427503 -0.23492488 0.039961774 0.18963861 -0.011584762 -0.12544715 0.15874934 0.15622865 -0.008731067 -0.15699647 -0.09957024 -0.16129555 0.19061927 -0.032230824 -0.20522748 0.0065327086 -0.17413528
stbstvdan -0.47081053 0.048543572 0.41251007 0.04656653 -0.21688782 0.25255626 -0.3002653 -0.095264 0.23875116 -0.17500167 -0.21916266 0.09329873 0.034785964 0.107325286 0.00028824815 -0.29295582 0.22357422 0.25912878 0.20054936 -0.20625271 -0.09133551 -0.04055325 0.08621096 -0.089713186 0.061064225 -0.070075005 0.4142377 -0.21510242 0.13892114 -0.2113391 0.15634955 0.46449536 0.30037868 -0.2967534 -0.03441983 0.24550939 -0.11396337 0.1399369 -0.13005462 0.08292638 0.0684283 -0.14394584 0.14626463 0.5827758 0.081824325 0.04961281 0.27432904 0.056090735 0.17380114 0.0021507149 0.31390527 0.036942415 -0.28776544 0.14682521 -0.24864435 0.33054096 -0.21470226 0.08219408 -0.12918083 -0.2852232 -0.10065624 -0.097041614 0.16239302 0.1276481
NeilREllis 0.009687901 -0.14586444 -0.1994391 -0.3293194 -0.13874365 -0.039646618 -0.14765735 -0.25509283 0.32030785 0.018217115 -0.25914976 -0.24246404 0.07870604 -0.2329306 -0.3017681 -0.13153662 0.19955678 0.5953369 0.05287921 -0.16195522 0.0575652 0.026133796 -0.0024922902 -0.012189281 0.32507828 0.08534565 -0.19211692 -0.33491603 0.34864733 0.40871677 0.33451444 0.117539935 0.17169496 -0.16317272 0.16233961 -0.20709585 0.026040347 -0.33455795 -0.1520329 0.39309883 0.29329145 0.4577027 0.102737226 -0.090565704 0.15734631 0.24070902 0.31873822 -0.35410237 -0.68681085 -0.047191013 0.46564147 -0.13587607 0.11793877 -0.49794415 -0.007592073 0.510438 0.2059749 -0.057446983 0.10731266 -0.3296538 0.04486223 -0.29749656 0.26901802 -0.12099871
Shaun_Chen 0.26829347 -0.09488203 -0.07935498 0.0056392616 0.039429855 0.07567307 -0.18317436 -0.19056185 -0.08575432 -0.23795469 -0.20395894 -0.00047531608 0.40101877 -0.16213542 -0.38664907 -0.2130246 -0.0010094958 0.0947296 -0.32056665 -0.40333015 -0.25944662 -0.2620495 0.07779312 0.11616474 -0.008794064 0.32073972 0.48873648 0.3207381 0.22222844 -0.025067449 -0.30329266 0.39301094 0.0071327994 -0.17525122 0.22283205 0.16120756 0.00036405752 0.15918347 -0.07681819 -0.0030842598 -0.26366025 0.17703159 -0.26036936 -0.20158759 -0.26013476 0.060149297 0.07448875 0.11263872 -0.43424278 0.2391539 0.3946345 0.20752926 0.0011063596 -0.2891548 0.33674824 -0.44160858 0.016072713 -0.19960885 -0.06369521 0.22349334 -0.19858375 -0.2954224 0.23477896 0.005490109
VBadawey -0.32742855 -0.06456271 0.08730615 0.25026348 0.01145547 0.30927497 -0.17605141 -0.16600825 0.17588669 -0.021130325 -0.21060443 0.10423125 0.008012337 -0.34274158 0.16655393 -0.09873078 0.18635409 0.24668272 -0.046552073 -0.036878493 -0.2650531 -0.18716569 0.3053083 -0.17070836 -0.017839102 -0.035026785 0.15830271 -0.11762252 0.09999011 -0.19583991 -0.18274853 0.32802847 0.62858635 -0.13120563 -0.009218534 -0.033978254 0.0029899986 0.27561578 0.046082616 -0.10669287 0.2130204 0.022093842 0.04399872 0.14856379 -0.14139935 0.2363604 0.23528317 -0.14421198 -0.1588689 0.078265004 0.21502103 -0.44149065 -0.05073959 0.06803413 -0.1732574 0.091340505 -0.22868045 -0.27390218 0.10742399 -0.18360744 -0.21081512 -0.27947822 0.12205599 0.16219588
markhollandlib 0.028324777 -0.028185561 -0.026029024 -0.19101769 0.034618698 -0.06674896 0.15496826 -0.075584255 0.09991734 -0.06098027 -0.32095248 -0.12605298 0.42012078 -0.029719094 -0.39583766 -0.25209224 -0.08119345 -0.035652492 0.08385198 -0.20816167 -0.19066128 -0.13025133 0.20221238 -0.26964504 0.20691422 0.35154092 0.38507277 0.23866801 0.19869304 -0.15600432 -0.26658353 0.15925312 0.2309259 -0.041196834 0.1902816 0.21904948 -0.30410394 -0.18790549 -0.261345 0.12758657 -0.09695294 -0.19127622 -0.038506657 -0.12991916 0.18387814 0.11281495 0.069990896 0.01852706 -0.40887424 0.18018588 0.46779862 -0.03450752 -0.2203982 -0.07815593 0.31989577 -0.2759428 0.18310584 -0.057874523 -0.07245998 -0.1252101 -0.09889491 -0.05333844 -0.12359781 -0.014870798
DougEyolfson -0.33201343 0.05235991 0.26798198 0.066613145 -0.12687075 0.42810878 -0.22655322 0.041381456 0.3813254 -0.26473686 -0.13444604 0.1479781 -0.072825894 -0.09070296 -0.030159295 -0.10644589 0.09109805 0.260578 -0.11910371 -0.071699075 -0.0059136655 0.03036622 0.24697943 -0.005058595 0.18139309 -0.051413342 0.01584833 -0.30743226 0.109149635 -0.2935974 -0.090347275 0.45046926 0.48027882 -0.05755229 0.013542264 0.041474566 0.025548678 0.015474672 -0.04033616 -0.0919489 0.16436565 -0.21283913 -0.03872843 0.19279373 0.03242154 0.15449682 0.41992524 0.123329155 0.017934712 -0.0686014 0.63106745 -0.15117611 0.029844785 0.2629019 -0.345285 0.16905136 -0.10244421 -0.113498576 0.109017216 -0.43466723 -0.28914478 -0.27216974 0.10408069 -0.024147373
LarryBagnell -0.21517949 -0.3152204 -0.120179296 0.14878824 -0.13658123 0.2340154 -0.08825857 -0.13360374 0.37757024 -0.012715908 0.035976574 0.1445194 -0.17457244 -0.16625516 -0.08518086 -0.2224917 0.2862155 0.26204637 0.2377894 -0.34229898 -0.3574734 0.17749517 -0.088732466 -0.083486035 0.13544334 -0.24639273 0.2743657 0.22254883 0.22695546 -0.030998535 0.1889225 0.06724234 0.17275271 -0.32521313 0.19672547 0.29713225 -0.0609662 -0.14243966 0.20824647 0.16272865 0.12374416 0.04874879 0.049162373 -0.014276202 0.12353268 0.09497267 -0.06772599 -0.20278868 0.094658725 0.36622345 0.39227694 -0.1320161 -0.3480469 0.23131312 -0.042319972 -0.16537267 0.014646771 -0.10339214 0.018502228 -0.02042835 -0.1489641 -0.36069176 0.207344 0.08350465
viraniarif -0.09032314 -0.38638616 -0.2554041 -0.015038188 -0.41183114 0.21501003 -0.03695696 -0.25426802 0.0107076485 -0.16207251 -0.17709497 -0.22038098 0.0918551 0.053767517 0.26011938 -0.05023745 -0.03346328 0.31627157 -0.09747522 -0.40876916 -0.3793062 0.21506995 0.25726262 0.20608214 -0.17369814 -0.10858845 0.20128635 0.25523686 0.4792842 -0.18421163 -0.33929262 0.25719574 0.34756792 0.09984249 0.16896866 0.04968562 0.1300135 0.24964988 0.18883936 0.025472272 -0.23526657 0.10525316 -0.13552397 -0.25357953 -0.09340805 0.019330606 0.45239398 -0.16668084 -0.237386 0.042613085 0.27879885 0.11134195 -0.24630907 0.17947973 0.392956 -0.21128958 -0.39202747 0.14682716 -0.11347899 -0.088542044 0.1982997 -0.41385078 0.17890413 -0.21009845
TerrySheehanMP -0.24746078 0.2855912 -0.1353305 -0.085816294 -0.25385815 -0.22951104 -0.047908604 -0.27306712 0.21530627 0.15174033 -0.31306463 0.07942786 0.10741709 -0.051885717 0.20248738 -0.22112994 0.1423109 0.090423666 0.030043116 -0.4001251 -0.22478653 -0.066259615 0.11481011 0.010748295 0.1338448 -0.17370105 0.22872946 -0.050831918 0.33979976 -0.30861437 -0.10523688 0.23641315 0.21958043 0.02079471 0.0033472208 0.05873508 -0.22312838 0.18755963 0.09160062 0.097965784 0.012861203 -0.29665774 -0.016829493 0.12578177 0.29617408 -0.0026759435 0.09896298 0.007573621 -0.12704419 0.034550793 0.17809977 0.048156828 -0.22590336 -0.1479967 0.03929959 0.062234323 0.06653837 0.035501707 -0.2102051 -0.09338011 0.007843257 -0.034529917 -0.08124578 -0.14088263
MMcLeodNWT -0.055820785 -0.2216859 -0.0020439033 -0.16013534 0.030339211 0.37846842 -0.17726518 -0.2025615 0.11536212 0.050128985 -0.2151402 0.23836023 -0.15862548 -0.11584115 0.06286875 -0.14765024 0.051043104 0.24583668 0.07281046 -0.27084216 -0.29208684 0.20747031 -0.019048015 0.051295646 0.10345065 -0.15528871 0.27077192 0.07879547 0.30007732 -0.1627071 0.18680997 0.16678242 0.26951665 -0.16497958 0.018817626 0.15966007 0.09853231 0.09018279 -0.028743776 0.1071665 0.08511541 -0.15466385 0.20330973 0.0099743875 -0.04981179 -0.09328428 0.18332702 -0.021824772 -0.057462 0.24408558 0.28215215 -0.28004405 -0.13884188 -0.21491334 -0.12176156 0.083108865 -0.12113282 -0.015147852 0.13247748 -0.20767404 -0.011235886 -0.12788197 0.19797039 0.1671169
WillAAmos -0.006181117 -0.08777908 -0.101857126 -0.1748363 -0.24978061 0.04432408 -0.12426625 0.0033228837 0.16224222 -0.04051842 -0.22865397 0.20840748 0.1368922 -0.31858337 -0.2372545 -0.046034876 0.30490243 0.42309725 -0.04918071 -0.2531634 -0.19115506 0.0011271056 0.007706267 0.13694623 0.24606574 -0.23081134 -0.2890759 -0.23814678 0.2223387 -0.020348515 0.049933903 0.24979773 0.115591265 0.034322478 0.09838241 -0.32382926 -0.22367594 -0.14431438 0.07545566 0.033069782 -0.056255937 -0.004805513 0.09516399 -0.2849036 0.10378201 -0.11817296 0.1230403 -0.32262674 -0.49928692 0.08019127 0.20378909 -0.16966091 0.06850704 -0.23943764 0.020000974 0.09313911 0.11411235 0.11572098 0.28851318 -0.236942 -0.033491846 -0.098369144 0.13646501 -0.32486638
billcaseyns -0.3695566 0.042531244 0.06026928 -0.2279738 0.049240813 -0.1462776 0.07821476 -0.31107536 -0.035179686 0.07726284 -0.043988466 0.34726116 0.23465617 0.2335869 -0.18550539 -0.12462301 0.30590162 0.31236932 -0.094372876 -0.13625887 -0.22837298 0.08565415 0.124738984 -0.21074584 0.004897648 -0.15344317 0.18556902 0.15702187 0.49096107 -0.06916983 -0.014108478 0.19097167 0.27989244 -0.15685919 0.18915957 0.03637381 -0.27870098 -0.075160086 0.006745129 0.119921155 0.15025973 -0.31780314 0.059589684 -0.13030733 -0.10568916 0.16316876 0.12837288 -0.0682935 0.092559494 0.17359522 0.23269929 -0.10384686 -0.1459378 0.16576962 0.17591086 0.013609149 -0.19085792 -0.3487887 0.25393388 -0.16214901 0.031882085 -0.05023586 -0.056136213 -0.049853593
AndrewLeslieMP -0.15823525 -0.026875596 0.08606336 -0.15974468 -0.43114448 -0.038446274 -0.41834232 -0.05019454 0.26992628 -0.25376967 -0.63150066 0.07806394 0.13109432 0.04710389 -0.3105562 -0.36344147 -0.10623998 -0.43668205 0.08867739 -0.2887429 0.18792269 -0.12283371 -0.10825632 0.38457784 0.12333286 -0.120439276 -0.36467814 0.029864825 0.023092654 -0.023717329 -0.12810169 0.27489138 0.25893053 0.22547248 -0.12792425 -0.66524744 0.12679109 -0.06689697 0.36046398 -0.017211739 0.064998455 -0.6568321 0.19484214 0.290218 0.13774645 -0.14145058 0.19434498 0.06599441 -0.32160103 -0.11163172 0.35000023 -0.3955875 -0.38843226 -0.04378541 -0.113437735 0.046215232 -0.08862748 -0.009854979 -0.063799724 -0.28295323 0.03478915 0.06003011 0.3575553 -0.03819321
juliedabrusin -0.11931178 -0.30398268 0.1164898 0.2620013 -0.26988924 0.24381319 -0.57997805 -0.21228743 -0.039528448 0.016319044 -0.35899782 0.33160114 0.15582328 -0.1254847 -0.15868752 -0.4258713 -0.15478048 0.14111404 -0.19853468 -0.14557096 -0.42200544 0.10325427 0.19577901 -0.013906682 -0.435528 -0.091673374 -0.19325371 -0.18205743 0.5561226 -0.12482482 -0.29974997 0.426538 0.2182648 -0.2937381 0.16715941 -0.18733802 0.009258148 0.1470828 0.08856933 -0.0126560135 -0.275113 -0.1621879 -0.14988753 0.16894442 -0.2537947 -0.15903457 0.22630094 -0.045904297 -0.070077844 0.2347783 -0.0570334 -0.08047834 -0.17996474 0.2761107 0.037350453 0.07091835 -0.39930823 -0.1905586 -0.026819015 0.14552632 0.051774777 -0.35355833 0.066686474 -0.12057036
stevenmackinnon -0.028096471 0.1601138 0.28143153 -0.15499015 -0.267662 0.0958187 -0.35468438 0.2269349 0.11886942 0.034378476 -0.39018214 0.008505542 -0.013916811 -0.39026144 -0.07383536 -0.12509035 0.17183419 0.2909317 -0.087547794 -0.4203742 -0.14945158 0.14228363 -0.11126422 0.46891674 0.38333315 -0.3625327 -0.2098291 0.07418571 -0.09522939 -0.3808981 -0.10882069 0.039565787 0.14903578 0.388729 -0.16641818 -0.109225884 -0.18780348 -0.3923425 0.30628797 0.028899988 0.25220856 -0.15220034 0.34836048 -0.06244033 0.07242634 -0.16817755 0.30568117 0.08804387 -0.47248343 0.19322462 0.29792616 -0.15150826 -0.16468364 -0.2589413 -0.1820802 0.20259951 -0.040327344 0.46336922 0.115646824 0.13294944 0.14466196 -0.1357931 0.5956009 -0.18999805
MPRubySahota 0.17586176 0.047844097 0.0153319035 -0.11418067 -0.010442943 0.3179728 -0.099468894 0.15813199 -0.02782266 0.2571696 -0.33746564 0.3931824 0.19837065 -0.06961927 -0.43153366 0.034198087 0.29211786 -0.08797051 0.01727741 -0.07120852 -0.21643259 -0.2805289 0.2941848 -0.22203381 0.49615052 0.16328254 0.36430237 0.137267 0.31112874 -0.3116722 -0.60519314 -0.2106305 -0.006729611 -0.11022543 0.07301152 -0.30798683 -0.096796714 0.18448822 -0.01969576 0.18834794 0.20734112 -0.29203483 0.018228855 -0.18159576 0.23516767 0.1479975 -0.11861626 -0.15410177 -0.1278679 0.31832528 0.1811349 -0.29856306 -0.002188095 -0.6597311 -0.011580554 -0.059218388 0.5090497 -0.33536124 -0.03589416 0.15797462 -0.35130644 -0.056284506 -0.2753175 -0.0009060125
pgoldsmithjones -0.17873308 0.1117865 0.12134377 -0.22661756 -0.16816273 -0.15027234 -0.49221978 -0.26334962 -0.20847574 -0.41764477 -0.5886429 -0.021557452 -0.009396786 -0.23418206 0.0051047076 -0.36794546 -0.03610309 -0.10887786 0.2564473 -0.30327845 0.039894067 -0.10601369 -0.4333554 0.62580806 0.07797489 -0.4423252 -0.029901918 -0.10410976 0.047162153 -0.01380455 -0.12066028 0.5214385 -0.06880304 -0.10504152 -0.13950892 -0.041492157 -0.38323087 0.18626821 0.37537172 0.16128218 -0.06644311 -0.47260672 0.25286895 0.15929416 0.010581722 -0.06876519 0.01551036 -0.08147427 -0.13823411 0.35418436 0.2998475 -0.44362953 -0.37879133 0.045888808 -0.1762121 -0.35548785 -0.23011477 0.2879321 -0.2981517 0.12420442 0.09499627 0.2910032 0.3487678 0.23425
sukhdhaliwal 0.06393947 -0.16827136 0.07460599 -0.24699079 -0.060056016 -0.052800037 -0.07681487 0.13961087 -0.03307912 -0.058626574 -0.21053834 -0.102930635 0.27615586 0.04596903 -0.19449262 -0.06947682 0.3411779 0.06432217 0.09616534 -0.29217327 -0.28665385 -0.12231575 0.037396066 0.10459541 0.13614051 0.07833032 0.22010016 -0.06911939 0.18160336 -0.05507106 -0.26111096 0.08394007 0.15467623 -0.2910788 0.007390539 -0.1254074 -0.42125514 0.09005263 0.16600363 0.37507978 0.104900725 -0.2876751 -0.056780208 -0.3199466 0.12923467 0.20571159 -0.123202085 -0.43806663 -0.21342814 0.36330655 0.15181144 -0.25047746 -0.12260521 -0.33581904 0.23480935 -0.37409684 0.32678798 0.19234689 0.017530577 -0.02384125 -0.105058484 -0.095255814 -0.010098688 -0.15112357
JohnMcKayLib -0.31086662 -0.18418369 -0.14595746 -0.062132828 -0.030777909 0.16827185 -0.15647891 -0.1341958 -0.019663611 -0.120780006 -0.113554746 0.0636432 0.20674369 -0.034882657 -0.23281823 -0.20757161 -0.104894795 0.21961172 -0.121861756 -0.18610048 -0.433504 -0.32483408 0.28924435 -0.07432715 -0.15007618 0.02509811 0.10553895 0.20077711 0.24286817 -0.14645566 -0.51882386 0.31408998 -0.04657193 -0.048311844 0.27401295 -0.033406265 -0.0012213546 0.03847842 0.050680865 -0.078424275 -0.16364448 -0.028539598 -0.30542734 -0.034488656 -0.26963216 -0.052750826 0.21256274 0.016874637 -0.27805176 0.32334444 0.23710331 0.04491932 0.042945825 -0.04011874 0.08881204 -0.16892587 -0.21608576 -0.16509707 -0.12136897 0.08105823 -0.06773151 -0.2260044 0.08287163 0.042342328
darrellsamson -0.27838913 0.11952419 0.045502737 -0.4526307 -0.008759567 0.3237745 0.43607798 -0.24701786 0.21028475 0.11358633 -0.32756323 0.2891306 0.041398685 -0.15230142 0.02786769 0.113899246 0.5881845 0.17281315 0.29771987 0.079079285 0.07547115 0.017185867 -0.06628939 0.024917325 0.42179364 -0.35631213 6.3026375e-05 0.19964923 0.34097126 -0.0050947964 -0.16964982 0.36731726 0.08173849 0.1697998 0.05824712 -0.13902886 -0.075226635 -0.24808858 0.2503521 0.04805459 0.38761836 -0.08376844 0.5190453 -0.07143599 -0.30826905 -0.0014292678 0.3810948 -0.008231664 0.1520528 -0.1021334 0.26403895 -0.2065512 0.051901165 -0.26557767 -0.095561735 0.2010549 0.1191843 -0.09166248 0.098480925 -0.13215472 -0.15680297 0.04179578 0.12367088 -0.1619224
AHousefather -0.20306903 -0.028593948 -0.21617123 0.05637584 -0.12697503 0.19743845 0.24005555 -0.16002208 -0.005906523 0.11736095 -0.15741113 0.38947758 -0.071594656 -0.70132 -0.3525915 0.15223023 -0.0011736774 0.3791232 0.09838084 -0.0749553 -0.4662653 0.011829615 0.5383774 -0.23172578 -0.03385734 -0.31057677 -0.14812978 0.21311516 0.35102084 -0.19763325 -0.23764442 0.43919167 -0.21153015 -0.31140596 0.28104728 -0.14138554 -0.27588484 -0.099208206 0.0014990875 -0.22256573 0.16929878 -0.1282974 0.062307023 0.022418115 0.28740063 -0.26691025 0.00731447 -0.22367217 -0.09072496 0.24649264 0.26876435 -0.26737055 0.048394028 0.22372763 0.118125655 -0.54653716 -0.147414 0.049053676 0.19301571 -0.16322824 -0.24524835 0.06475316 0.12568153 0.11995307
RajLiberal 0.23871356 0.16240405 0.31633952 -0.27644214 0.18784496 0.21596451 0.064612724 0.06144509 -0.09914203 0.23245873 -0.44397756 0.32614058 0.4061322 -0.074749336 -0.6077317 0.0068762177 0.3765203 -0.006944408 0.11279882 0.20022878 -0.13446425 -0.25491217 0.19689633 -0.3110366 0.3007432 0.22246218 0.4890561 0.18751834 0.32719386 -0.23945025 -0.5194848 0.058799148 0.13330391 -0.28813264 0.036464944 -0.04987884 -0.30789074 -0.014474259 0.026671097 0.1772102 0.17996697 -0.2142952 0.15318346 -0.029277764 0.022832714 0.091838814 -0.097007856 -0.1329046 -0.12201338 0.20771392 0.064436175 -0.12118204 -0.061197132 -0.24551333 0.14723898 -0.015102389 0.3980161 -0.35613948 0.030171402 0.22358963 -0.28880972 -0.065648556 -0.20274803 -0.027453093
jwaldag 0.12811916 0.06327761 0.034598093 -0.3498526 -0.06361482 -0.124034345 -0.2695788 -0.062471498 0.12819463 -0.06783242 -0.20403536 -0.13293256 0.360545 -0.020914087 -0.17060724 -0.17126587 0.081643425 0.33240843 -0.07357565 -0.38000077 -0.024690267 -0.12173457 0.08152287 -0.022459026 0.28303802 0.07258182 -0.007134967 0.04766894 0.10262174 -0.020330744 -0.11746729 0.07356616 0.19745971 -0.115361966 0.26678452 -0.17898272 -0.2839768 -0.30318296 -0.025761364 0.25506705 0.005733435 0.065304555 -0.010273815 -0.34558964 0.1677992 0.18320516 0.15681419 -0.021606695 -0.5747352 0.31574544 0.29288834 -0.13189246 -0.1950161 -0.40902415 0.1678543 0.04599595 0.09404091 0.13505994 0.13702933 -0.25721756 0.16200574 -0.22343734 0.1336908 -0.23815098
DrRobbieO -0.13115361 0.010351551 0.10992562 0.11315093 -0.11269437 0.2650966 -0.29168835 -0.075137 0.24564642 0.11576027 -0.22271225 0.19814493 0.11359667 -0.18746224 0.018139133 -0.29511276 0.10253427 0.1332141 0.04482178 -0.22720148 -0.23642524 -0.09704567 0.08780929 -0.15258981 0.042508062 -0.02510346 0.43079087 0.07836562 0.052583005 -0.36565694 0.10548253 0.20397443 0.32279468 -0.07682245 -0.12327759 0.03356238 0.017500948 0.039904375 -0.0557043 0.07605362 0.15573867 -0.22350402 0.24813005 0.35834488 -0.007183778 -0.1729029 0.23252352 0.1368856 -0.08336033 0.110826805 0.16210192 -0.07121037 -0.43058372 -0.2035837 -0.30061874 0.3347977 -0.02178207 -0.0060829083 -0.011450581 -0.14465043 -0.2030241 -0.09763777 0.30777594 0.068675905
SherryRomanado -0.13721985 -0.09644959 -0.30415335 -0.07241318 0.007599881 0.031794824 0.26001295 -0.1628955 0.21922955 0.30412617 -0.31422785 -0.035293464 -0.0883455 -0.39566934 -0.04392405 -0.30141127 0.38931543 0.2982833 0.08953699 -6.872966e-05 -0.16433051 0.07871399 0.23397213 -0.19085303 0.09536382 -0.12428222 0.11625476 0.2678631 0.07196902 -0.058603 -0.022527212 0.20433623 0.15387896 0.21508755 -0.006943969 -0.01181791 -0.031524155 -0.25137317 0.05312838 0.12686035 0.37962332 0.0008582741 0.21346852 -0.01908322 0.0010038834 -0.11311417 0.20357175 -0.117485315 -0.34433895 0.15779407 0.37547025 -0.18887189 -0.26398784 -0.35164398 0.0008823854 0.085030854 0.4108869 0.12453805 -0.00024792415 -0.0020522748 -0.22672735 -0.10796712 0.37087053 0.0043987804
geoffregan -0.22970144 0.16217342 0.10297124 -0.46555573 -0.10301041 0.35354385 0.43392733 -0.20908237 0.3852431 -0.043979447 -0.29827064 0.66508776 0.47059485 0.032148656 -0.19002259 0.22963199 0.7624295 0.08102421 -0.0040737605 0.029985746 0.36145976 -0.11603113 0.0039377627 0.14504305 0.4966301 -0.45538506 0.07054667 0.17182088 0.4677953 -0.07099853 -0.24553122 0.5176878 -0.07856681 0.18357769 -0.068280876 -0.27117947 -0.33447075 -0.20577523 0.4254026 -0.086348034 0.25746417 -0.2537903 0.36223742 -0.25525075 -0.63168234 -0.057866223 0.43867567 -0.025939653 0.24066453 -0.31998688 0.071301915 0.07889499 0.187728 -0.11339038 -0.14406946 -0.010842883 -0.05167179 -0.3857235 0.26706 -0.053486317 -0.3994535 0.1310327 -0.18978876 -0.49234253
j_maloney -0.022979388 0.19641906 0.021645064 0.12736867 -0.1840497 0.24646513 -0.3093902 -0.3091567 -0.010240625 -0.29194757 -0.5761097 0.022603935 0.18146434 -0.44122103 -0.057372577 -0.16632845 0.0019306394 -0.10297945 0.026309488 -0.13707788 -0.1844901 -0.107653424 -0.022698482 -0.047604688 -0.24189967 0.20679262 0.15092559 -0.03630835 0.5580213 0.16535021 -0.4947241 0.52478546 0.052698858 -0.292086 0.04753072 0.102163844 -0.27699357 0.124532446 0.1434015 -0.19595869 -0.029360875 0.41646844 0.14918248 0.13376908 -0.35850856 0.103188545 0.49863645 -0.10125926 -0.2877105 -0.09233699 -0.122805364 -0.07729367 -0.22490185 0.5006529 0.17007858 0.108911656 -0.513152 -0.46180934 -0.11840272 0.29998547 -0.09753485 -0.23901929 0.026180511 -0.15213352
LapointeLinda -0.29825202 -0.451012 -0.29021832 -0.13579471 -0.11400849 0.20669965 -0.050565436 -0.10699071 0.21663597 -0.1699126 -0.35050333 0.16423967 -0.10809469 -0.23072992 -0.26408365 -0.034678504 0.326714 0.05979322 0.10254762 -0.23747224 -0.16417393 -0.19366142 0.01425753 0.07935289 0.031697307 -0.06359765 -0.11929691 0.03948639 0.12756704 0.15306278 -0.11110796 0.26980174 0.08357711 -0.07891034 0.008492169 -0.20241004 -0.04670723 0.032353133 0.071980074 -0.09817435 0.05201126 -0.12306741 0.0493974 -0.031247215 -0.025256388 -0.059611857 0.10534362 -0.17027837 -0.14451645 -0.097204775 0.13608022 -0.2876506 -0.12943605 -0.073685594 -0.0660779 -0.13675445 -0.06747837 -0.21015148 -0.022720693 0.05216537 -0.20869432 -0.11229061 0.20207591 0.14049843
AlexandraBrStL -0.16764288 -0.0014138643 -0.08648185 0.18950547 -0.25597948 -0.10379511 -0.030937858 -0.19459258 0.13802154 -0.09989994 -0.5513804 0.2930638 -0.09363596 -0.21634595 -0.40974882 -0.2865846 0.22201647 -0.043129474 -0.07042634 -0.48135287 -0.11826568 -0.09167345 0.12071236 0.06549461 0.16039093 0.021807468 0.21667665 0.07431693 0.09231511 -0.11074895 -0.057686523 0.40095225 -0.11109153 0.036240447 0.032613266 -0.065596245 -0.04424669 0.18692918 0.029190322 -0.1583231 -0.076994635 -0.09647164 -0.11223598 0.24016546 0.12563999 -0.07614741 -0.011270184 0.031565394 -0.14293301 -0.0144726075 0.37465292 -0.090612985 -0.2926436 -0.14077705 0.08452496 -0.3757708 0.0047076824 -0.037468713 -0.14994429 0.22481105 -0.15476936 -0.01477813 0.13852718 0.081184246
MarkEyking_MP -0.49346676 -0.045744512 0.26129633 -0.29861736 0.058123518 0.07126167 -0.2012458 -0.30206153 0.30210647 -0.026325768 -0.19680128 0.05172154 0.28131935 0.2243226 -0.2468985 -0.15249665 0.4288864 0.24273314 -0.074159406 -0.35229474 -0.07405349 -0.1917533 0.11724949 -0.048196245 -0.05123834 0.096877925 0.30339065 0.23518436 0.23907205 -0.03513236 0.13514252 0.042879064 0.13407281 -0.11438486 -0.1502987 -0.057587855 -0.12076688 -0.26284027 0.16456795 -0.059698567 0.35119584 -0.2136998 0.31838658 0.21131691 -0.27629635 0.15463538 0.44847935 0.07660848 -0.05866295 -0.14761999 -0.005537061 0.026114956 -0.2645972 -0.045846507 -0.18898228 0.17776339 -0.30657485 -0.34660718 0.23481059 -0.028816136 -0.019250682 -0.15091076 0.21337841 0.09938514
MajidJowhari 0.0027715282 0.015463173 0.018564228 0.04236663 0.10189547 0.16895919 -0.0390151 -0.2675736 -0.035312396 -0.081447355 -0.28277582 0.22774222 0.12749086 -0.31046948 -0.11103654 -0.26290205 0.36017683 0.17612629 -0.29316464 -0.34268937 -0.20872715 -0.27221593 0.30524805 0.051931202 -0.12663403 0.07593357 0.3706644 0.26504838 0.17555158 -0.19618458 -0.22021401 0.5879762 -0.015119194 -0.2930404 0.10076587 0.31039613 -0.057211716 0.11686473 0.0502706 -0.24107611 -0.08926919 0.07456642 -0.16988271 -0.14263833 -0.42367488 -0.11171332 0.08327516 0.051875453 -0.257397 0.2776617 0.1138915 0.064330414 -0.04340761 -0.09570822 0.0961332 -0.40085283 -0.13676418 -0.138082 0.1372361 0.052899513 -0.15411195 -0.28052285 0.19419305 0.11079905
RonMcKinnonLib 0.23875682 -0.051689386 0.14455508 -0.22900297 -0.08085134 0.16349714 -0.030973574 0.035006028 0.2023594 0.07165291 -0.27493116 0.088784866 0.075582705 -0.18761687 -0.30998182 -0.07554818 0.36841494 0.16973399 0.04619477 -0.21750613 -0.21147113 -0.029549008 0.18496987 -0.22587109 0.23270921 0.16920754 0.23572604 0.16367276 0.07488745 -0.0826063 -0.034180745 0.004139683 0.30850935 -0.14225584 0.14446104 0.082225025 -0.11198452 -0.059475165 -0.030940924 0.067957655 0.16519354 0.033264223 0.07242082 -0.10347186 0.35417083 0.2231288 -0.006375822 -0.08196472 -0.27697527 0.16483365 0.3670557 -0.2572591 -0.19672203 -0.27055582 0.33533013 0.017379992 0.26966754 -0.1544237 0.1118111 -0.08119717 -0.020457957 -0.33720726 0.13771805 -0.169878
Scott_Simms -0.2858292 0.20554385 0.23613611 -0.5335025 0.32533404 0.41248152 -0.27251473 -0.26202172 0.21362525 -0.35022417 -0.12856694 0.19305989 -0.13519205 -0.551668 0.04320261 0.2647315 -0.10948513 0.38426882 0.10319036 -0.25170124 -0.16202106 -0.035354454 -0.3044629 -0.39717075 0.20125319 -0.20910525 0.13414091 0.63914335 0.3616139 -0.11927628 0.051250063 -0.043017432 -0.027187228 -0.15198815 0.41963327 0.097668104 -0.20940448 -0.23062472 0.15409619 0.0314439 0.31252766 0.1768451 0.52994263 0.27131766 0.08369508 0.051984258 0.23759094 0.48841956 -0.019139186 0.34791052 0.2923155 -0.22394794 -0.5788681 -0.07858637 -0.06807339 0.21161665 -0.1587232 -0.28662226 0.030681893 0.010224959 0.13986363 -0.14146645 0.33362964 -0.12735778
randeepssarai 0.3173906 -0.045085624 0.27689946 -0.34717515 -0.061827682 0.17304224 -0.1908413 0.20301646 0.11858595 -0.0070961104 -0.30016014 0.23889454 0.2691076 -0.07290978 -0.41445056 0.07833809 0.22703433 0.13791843 0.0093129 -0.3532357 -0.112734206 0.0022016452 0.030748488 -0.011640537 0.4296996 0.07620305 0.1588824 0.091513455 0.14815804 -0.2767993 -0.29585877 -0.08314358 0.10111539 -0.18004404 0.09477768 0.04862106 -0.41440076 -0.2393432 0.054549754 0.19100213 0.13610029 -0.18499021 0.06332128 -0.35751566 0.28018972 0.22785807 -0.046513084 -0.027207924 -0.2044569 0.39633116 0.2781658 -0.30418625 -0.10189498 -0.27701575 0.23775671 -0.19203666 0.19680697 0.09661486 0.046870973 0.078037776 0.04347569 -0.21053986 -0.06864646 -0.3015713
_BryanMay -0.0056832107 -0.13219295 -0.11170618 -0.40709937 -0.018970467 0.24399418 -0.20192544 -0.028081357 0.040986937 -0.3224851 -0.3472728 0.20511758 -0.20191176 -0.07875619 -0.105134614 -0.06526675 0.20613958 -0.06932324 0.041777715 -0.46323052 -0.09084454 -0.03099351 -0.052238494 0.042635463 0.091448285 -0.116859645 0.0005468628 0.27757758 0.16805214 0.11635629 -0.13651069 0.027410397 -0.113090806 0.03208397 0.29545456 -0.03469548 -0.14377667 0.03977324 0.16180249 -0.124712214 0.013172206 0.048749495 -0.063131176 -0.39854604 0.1472299 0.013597591 0.07305152 0.20833728 -0.18610187 0.37428567 0.28927085 -0.4447627 -0.30438372 -0.35497203 0.10777061 -0.13795188 0.14801654 -0.14461525 0.19868164 0.13041079 0.08017899 -0.16980433 -0.079102114 -0.21153095
